tree
version=v2
num_class=1
num_tree_per_iteration=1
label_index=0
max_feature_idx=9
objective=lambdarank
feature_names=Entity_overlap Transfer_lang_dataset_size Target_lang_dataset_size Transfer_over_target_size_ratio GENETIC SYNTACTIC FEATURAL PHONOLOGICAL INVENTORY GEOGRAPHIC
feature_infos=[0:0.38271604938271597] [81:10000] [81:10000] [0.0080999999999999996:123.45679012345678] [0:1] [0.29720000000000002:0.87519999999999998] [0.34360000000000002:0.87929999999999997] [0:0.82779999999999998] [0.26869999999999999:0.86109999999999998] [0.0082000000000000007:0.41980000000000001]
tree_sizes=1330 1307 1308 1320 1309 1317 1316 1319 1322 1317 1321 1327 1324 1312 1323 1321 1327 1323 1333 1325 1326 1333 1331 1323 1332 1325 1336 1324 1336 1339 1348 1340 1334 1342 1345 1338 1344 1338 1341 1347 1336 1337 1347 1321 1328 1334 1349 1341 1338 1331 1349 1337 1335 1353 1351 1339 1348 1359 1353 1364 1358 1347 1358 1364 1360 1349 1362 1365 1359 1352 1352 1366 1367 1366 1372 1361 1371 1353 1377 1367 1367 1369 1361 1368 1361 1370 1369 1364 1359 1367 1367 1361 1362 1366 1375 1363 1368 1358 1364 1373

Tree=0
num_leaves=16
num_cat=0
split_feature=9 4 8 0 2 9 9 9 7 8 8 6 0 9 5
split_gain=37.9986 10.3598 1.64135 1.10402 1.40565 0.825896 0.938675 0.750683 0.975855 0.757758 0.762388 1.25103 0.467287 0.364512 0.275911
threshold=0.081050000000000011 0.70580000000000009 0.39835000000000004 0.0013532348804500501 844.00000000000011 0.17105000000000001 0.38245000000000001 0.16175000000000003 0.38255000000000006 0.53785000000000005 0.59395000000000009 0.63360000000000005 0.011492226414843551 0.033800000000000004 0.52625000000000011
decision_type=2 2 2 2 2 2 2 2 2 2 2 2 2 2 2
left_child=2 -2 -1 4 -4 7 14 9 -9 -3 11 -11 -8 -6 -7
right_child=1 5 3 -5 13 6 12 8 -10 10 -12 -13 -14 -15 -16
leaf_value=0.046864023196878928 0.042131262836968053 -0.042990854053299221 0.025641204702605936 0.041927638602841821 0.0054589868727044685 -0.024902135581427703 0.029228671773738044 0.0028429948010991325 -0.049764207945748054 -0.03338368732569557 -0.049554327177384935 0.032630247706713279 -0.049172837343644769 -0.046335860445479236 -0.046703771558768183
leaf_count=26 6 77 6 7 5 10 5 7 12 20 13 7 5 22 249
internal_value=0 -0.293524 0.405302 0.212144 0.0512559 -0.371756 -0.432481 -0.290303 -0.113213 -0.349743 -0.172711 -0.0308085 0.063113 -0.316203 -0.452281
internal_count=477 411 66 40 33 405 269 136 19 117 40 27 10 27 259
shrinkage=0.1


Tree=1
num_leaves=16
num_cat=0
split_feature=6 4 6 9 8 0 8 2 9 6 7 5 9 3 2
split_gain=966.555 96.9224 88.4245 83.0026 93.9323 101.049 66.2271 64.529 42.5903 32.5269 19.3775 16.9218 11.477 10.2603 8.78483
threshold=0.48775000000000007 0.87045000000000006 0.44200000000000006 0.16680000000000003 0.49755000000000005 0.0013532348804500501 0.36800000000000005 3579.0000000000005 0.064000000000000015 0.55005000000000015 0.34390000000000004 0.63650000000000018 0.044800000000000006 46.635802469135818 8572.5000000000018
decision_type=2 2 2 2 2 2 2 2 2 2 2 2 2 2 2
left_child=1 8 14 4 -2 7 -4 9 12 -6 -8 -7 -1 -11 -3
right_child=3 2 6 -5 5 11 10 -9 -10 13 -12 -13 -14 -15 -16
leaf_value=0.046547036384081433 -0.041145760076068683 -0.016531584901865428 0.03935976313036977 -0.040598594517115755 -0.045505769792661625 0.044393084445567846 0.0091647788240181698 -0.039978787042741208 0.011814361156905956 0.027884964205887392 -0.047584095042088555 -0.0037607691569485494 0.034223284968055219 -0.0047186583281018943 -0.045768366296491649
leaf_count=8 58 5 5 276 8 5 7 55 5 11 9 6 6 6 7
internal_value=0 0.304897 0.0762117 -0.290669 -0.161754 -0.0190608 0.241871 -0.178713 0.384521 0.0689055 -0.211117 0.358227 0.425018 0.180555 -0.312081
internal_count=477 52 33 425 149 91 21 80 19 25 16 11 14 17 12
shrinkage=0.1


Tree=2
num_leaves=16
num_cat=0
split_feature=6 9 0 9 8 2 8 1 8 5 5 8 4 9 6
split_gain=548.245 88.4795 59.4083 47.1906 55.9886 42.0125 45.3584 33.3561 26.7531 13.9984 11.9815 10.0888 9.3188 6.87212 3.52838
threshold=0.48775000000000007 0.16680000000000003 0.0013532348804500501 0.055250000000000007 0.39835000000000004 844.00000000000011 0.51970000000000016 9621.5000000000018 0.38290000000000007 0.60385000000000011 0.60580000000000012 0.39835000000000004 0.70580000000000009 0.38245000000000001 0.61935000000000007
decision_type=2 2 2 2 2 2 2 2 2 2 2 2 2 2 2
left_child=3 2 5 11 8 6 -2 -4 -5 -9 -8 12 -1 -3 -7
right_child=1 13 7 4 -6 14 10 9 -10 -11 -12 -13 -14 -15 -16
leaf_value=0.043570008492772511 -0.041581512557011022 -0.039094775176917312 -0.04549203891362933 0.0010698345654352878 -0.042296352149286592 -0.038625393050871537 -0.019967864637734405 0.036547237196726472 0.036926247771317276 -0.0049714792006455609 0.029857971971185605 0.02143585641895316 0.029678762295305073 -0.014587709025916072 -0.025191551522606711
leaf_count=5 17 267 7 9 18 69 5 5 5 6 7 8 7 9 33
internal_value=0 -0.244288 -0.0869646 0.289016 0.106199 -0.199347 0.0227919 0.186528 0.210881 0.278904 0.219745 0.361587 0.388499 -0.377932 -0.337401
internal_count=477 425 149 52 32 131 29 18 14 11 12 20 12 276 102
shrinkage=0.1


Tree=3
num_leaves=16
num_cat=0
split_feature=6 4 9 8 9 8 9 4 5 9 1 8 5 5 6
split_gain=330.964 71.8114 45.5641 33.1832 21.3146 16.3492 8.40904 8.20461 20.8706 7.39959 5.84852 5.13713 5.00624 8.54391 12.4413
threshold=0.48775000000000007 0.64620000000000011 0.081050000000000011 0.39835000000000004 0.064750000000000016 0.49755000000000005 0.18625000000000003 0.70580000000000009 0.52625000000000011 0.38245000000000001 1709.0000000000002 0.35635000000000006 0.58320000000000005 0.69475000000000009 0.61305000000000009
decision_type=2 2 2 2 2 2 2 2 2 2 2 2 2 2 2
left_child=3 -2 5 7 -5 -3 10 11 -9 -8 -4 -1 -12 14 -14
right_child=1 2 6 4 -6 -7 9 8 -10 -11 12 -13 13 -15 -16
leaf_value=0.025209138926875554 0.028519627158456542 -0.031665947384235164 -0.041449939825495781 0.017208757253691129 -0.038520761777400811 0.018872269285182056 -0.037912441182461822 -0.0072438963606057368 0.034319305730366789 -0.0083766751524624612 -0.037130976629247359 0.040100499066759276 -0.018118891240502945 -0.030763059220531932 0.021437999603828251
leaf_count=6 5 13 30 8 18 14 231 7 6 9 26 7 46 45 6
internal_value=0 -0.215045 -0.261539 0.283417 -0.0283323 0.0713339 -0.309992 0.328852 0.232731 -0.360236 -0.242125 0.370597 -0.209782 -0.174695 -0.0861279
internal_count=477 425 420 52 26 27 393 26 13 240 153 13 123 97 52
shrinkage=0.1


Tree=4
num_leaves=16
num_cat=0
split_feature=6 4 9 8 9 8 9 9 1 0 9 6 7 9 8
split_gain=229.713 49.99 31.2205 23.2942 14.9168 10 6.18718 6.15351 6.02148 5.28934 7.09471 7.36457 3.56892 3.58297 2.92517
threshold=0.48775000000000007 0.64620000000000011 0.081050000000000011 0.39835000000000004 0.064750000000000016 0.49755000000000005 0.040400000000000005 0.060000000000000005 9621.5000000000018 0.0086661844007846021 0.12360000000000002 0.63360000000000005 0.38715000000000005 0.35720000000000007 0.38290000000000007
decision_type=2 2 2 2 2 2 2 2 2 2 2 2 2 2 2
left_child=3 -2 5 6 -5 -3 -1 -8 -4 10 11 -10 -11 -14 -9
right_child=1 2 8 4 -6 -7 7 14 9 12 -12 -13 13 -15 -16
leaf_value=0.036639604390774454 0.025270496775718437 -0.029296406993651793 -0.036547164995763666 0.016607711218364345 -0.035897305575446216 0.015489911086469075 0.003405265887204609 0.017040802468571547 -0.028916060584446918 -0.040815511884824102 -0.03141014729141535 0.0095303428020009975 -0.017595235991555418 0.018663945877461337 0.034151913495381311
leaf_count=10 5 13 165 8 18 14 6 5 22 5 178 9 9 5 5
internal_value=0 -0.201347 -0.247051 0.272261 -0.0200184 0.0571809 0.316998 0.235929 -0.29394 -0.24955 -0.273698 -0.104281 -0.0623649 0.014825 0.288036
internal_count=477 425 420 52 26 27 26 16 393 228 209 31 19 14 10
shrinkage=0.1


Tree=5
num_leaves=16
num_cat=0
split_feature=4 9 8 9 9 3 1 0 9 5 6 5 8 2 8
split_gain=183.972 59.9574 16.6601 8.18723 8.98353 7.42529 6.74324 4.34741 5.71862 4.35894 10.564 4.16496 2.79164 2.75828 4.02563
threshold=0.79200000000000015 0.081050000000000011 0.34070000000000006 0.033800000000000004 0.071900000000000019 0.95572326478149117 9621.5000000000018 0.0086661844007846021 0.18625000000000003 0.69475000000000009 0.61305000000000009 0.52110000000000001 0.46605000000000008 3579.0000000000005 0.52985000000000004
decision_type=2 2 2 2 2 2 2 2 2 2 2 2 2 2 2
left_child=5 2 -2 -4 -5 -1 -3 8 9 10 13 -7 -6 14 -8
right_child=1 6 3 4 12 11 7 -9 -10 -11 -12 -13 -14 -15 -16
leaf_value=-0.012148404395408529 0.031285189698311559 -0.035743279738607213 0.014359761945043306 -0.03709602641914031 -0.028558019652274294 0.034120967436622601 -0.02188087381723075 -0.0043744491554507268 -0.032860557687652135 -0.034566067878597527 0.02360484643186269 0.019659197064106997 0.012094581949483613 -0.029814137039231893 0.015155790778800068
leaf_count=5 5 166 8 23 5 14 21 19 121 29 5 9 5 37 5
internal_value=0 -0.175359 0.098596 -0.0338973 -0.161096 0.299025 -0.274322 -0.224382 -0.248096 -0.168916 -0.114386 0.312641 0.0415409 -0.201604 -0.0983637
internal_count=477 449 46 41 33 28 403 237 218 97 68 23 10 63 26
shrinkage=0.1


Tree=6
num_leaves=16
num_cat=0
split_feature=4 9 8 2 7 6 7 1 0 7 9 9 5 8 2
split_gain=131.116 49.2895 12.2983 5.94179 5.76986 5.71931 12.9783 5.1238 5.01088 4.95473 4.9281 4.4763 3.27736 3.09536 3.74813
threshold=0.79200000000000015 0.081050000000000011 0.34070000000000006 844.00000000000011 0.34390000000000004 0.42545000000000005 0.32885000000000003 9621.5000000000018 0.0015073298712539004 0.27065000000000006 0.38245000000000001 0.18625000000000003 0.55990000000000018 0.52985000000000004 844.00000000000011
decision_type=2 2 2 2 2 2 2 2 2 2 2 2 2 2 2
left_child=5 2 -2 -4 9 -1 -7 -3 -8 -5 11 12 -9 -14 -15
right_child=1 7 3 4 -6 6 8 10 -10 -11 -12 -13 13 14 -16
leaf_value=0.034929945265832422 0.030187493468353657 -0.034280888468233149 0.018214558217541983 -0.032645361983074293 -0.038197791926490171 -0.015072781519646437 0.00010773467940784941 -0.034530105541462734 0.030760413586923427 0.010553370078771411 0.0078583925463890838 -0.030992441298428798 -0.020895236731220478 0.018359886018735758 -0.013856175687643841
leaf_count=6 5 166 9 6 18 9 6 25 7 8 7 130 47 6 22
internal_value=0 -0.163667 0.108394 -0.0217821 -0.121601 0.273983 0.204537 -0.262641 0.268751 -0.00852531 -0.215023 -0.234956 -0.159233 -0.114332 -0.0108159
internal_count=477 449 46 41 32 28 22 403 13 14 237 230 100 75 28
shrinkage=0.1


Tree=7
num_leaves=16
num_cat=0
split_feature=6 4 8 9 9 9 9 8 9 1 8 5 8 5 3
split_gain=102.149 22.889 14.0472 9.39192 5.68628 5.56954 4.28285 3.34949 2.8027 2.29175 2.2305 1.90096 2.53801 3.49541 3.47443
threshold=0.48775000000000007 0.64620000000000011 0.39835000000000004 0.081050000000000011 0.064750000000000016 0.38245000000000001 0.18625000000000003 0.49755000000000005 0.040400000000000005 1709.0000000000002 0.34070000000000006 0.58320000000000005 0.52315000000000011 0.69475000000000009 8.2446443873179103
decision_type=2 2 2 2 2 2 2 2 2 2 2 2 2 2 2
left_child=2 -2 8 7 -4 6 9 -3 -1 -5 -10 -11 -13 14 -14
right_child=1 3 4 5 -6 -7 -8 -9 10 11 -12 12 13 -15 -16
leaf_value=0.032925360639662317 0.018839221022174044 -0.023448234103185906 0.0092032860862631231 -0.035663016266904497 -0.032375743873665562 0.0049035058894442438 -0.032284708458783416 0.010474838670305204 0.0087487358927054275 -0.031490454646158239 0.026246353930741484 -0.022934065139883726 -0.011988381822299105 -0.022112974136428664 0.02398260684480338
leaf_count=10 5 13 8 30 18 9 231 14 7 26 9 53 15 24 5
internal_value=0 -0.173621 0.236447 -0.217689 -0.0526075 -0.249056 -0.265621 0.0164105 0.282575 -0.195581 0.216488 -0.165964 -0.134515 -0.0546398 0.0607912
internal_count=477 425 52 420 26 393 384 27 26 153 16 123 97 44 20
shrinkage=0.1


Tree=8
num_leaves=16
num_cat=0
split_feature=6 4 8 9 9 1 0 9 8 6 9 7 8 7 9
split_gain=81.5637 18.2497 10.9615 7.97115 4.43715 3.50947 3.07189 2.96771 2.75006 2.37585 1.90312 2.01274 3.97771 1.85124 1.44519
threshold=0.48775000000000007 0.64620000000000011 0.39835000000000004 0.081050000000000011 0.064750000000000016 9621.5000000000018 0.0086661844007846021 0.12360000000000002 0.49755000000000005 0.63360000000000005 0.040400000000000005 0.29865000000000003 0.34070000000000006 0.38715000000000005 0.35720000000000007
decision_type=2 2 2 2 2 2 2 2 2 2 2 2 2 2 2
left_child=2 -2 10 8 -4 -5 7 9 -3 -7 -1 -12 -13 -8 -15
right_child=1 3 4 5 -6 6 13 -9 -10 -11 11 12 -14 14 -16
leaf_value=0.03129565024256916 0.016720786398640743 -0.022988723915852518 0.0087902874174150391 -0.032044238546194842 -0.030624601409860081 -0.021743151898906368 -0.036638939636036545 -0.026102660402634838 0.0099231247688954648 0.0085051923355183804 0.029802880111695674 -0.015482941134793463 0.021668076670935572 -0.011556398951564925 0.018039035021837121
leaf_count=10 5 13 8 165 18 22 5 178 14 9 5 5 6 9 5
internal_value=0 -0.166555 0.226924 -0.210489 -0.0442459 -0.242372 -0.195766 -0.223585 0.0168355 -0.0723796 0.271176 0.213174 0.141039 -0.0129366 0.0527277
internal_count=477 425 52 420 26 393 228 209 27 31 26 16 11 19 14
shrinkage=0.1


Tree=9
num_leaves=16
num_cat=0
split_feature=4 9 8 2 5 0 7 1 7 0 9 5 6 0 5
split_gain=68.1159 24.4651 7.02187 3.71959 3.71518 4.76423 3.26466 3.16796 2.5508 2.43835 2.32717 1.77731 3.79044 1.45414 4.1938
threshold=0.79200000000000015 0.081050000000000011 0.34070000000000006 844.00000000000011 0.52110000000000001 0.0035530257456000002 0.34390000000000004 9621.5000000000018 0.27065000000000006 0.0086661844007846021 0.18625000000000003 0.69475000000000009 0.61305000000000009 0.0040616308693814012 0.43185000000000001
decision_type=2 2 2 2 2 2 2 2 2 2 2 2 2 2 2
left_child=4 2 -2 -4 13 -6 8 -3 -5 10 11 12 -9 14 -1
right_child=1 7 3 6 5 -7 -8 9 -10 -11 -12 -13 -14 -15 -16
leaf_value=0.029572360664316424 0.027369805241451901 -0.031373994949370328 0.016421727446645003 -0.030193672140523199 0.026570364013686888 -0.0067686209378368146 -0.036021674315698991 -0.01681462893262305 0.0075811123152967688 -0.001209828618482108 -0.028429488940458221 -0.029656216280762593 0.01879545591378633 0.033922053692348679 -0.0035429583447849078
leaf_count=5 5 166 9 6 7 5 18 63 8 19 121 29 5 5 6
internal_value=0 -0.145429 0.0876751 -0.0277982 0.247118 0.120566 -0.123842 -0.23339 -0.0211129 -0.187877 -0.21296 -0.145554 -0.0982561 0.288926 0.234148
internal_count=477 449 46 41 28 12 32 403 14 237 218 97 68 16 11
shrinkage=0.1


Tree=10
num_leaves=16
num_cat=0
split_feature=4 9 8 3 1 2 7 0 7 9 7 2 9 8 0
split_gain=56.4862 20.0365 5.02507 4.28165 2.8319 2.54364 3.04521 2.52886 1.92071 1.90871 1.47323 1.32651 1.96238 1.9067 1.25837
threshold=0.79200000000000015 0.081050000000000011 0.34070000000000006 0.95572326478149117 9621.5000000000018 844.00000000000011 0.34390000000000004 0.0086661844007846021 0.27065000000000006 0.19865000000000002 0.44875000000000004 844.00000000000011 0.17105000000000001 0.52985000000000004 0.012231478476204151
decision_type=2 2 2 2 2 2 2 2 2 2 2 2 2 2 2
left_child=3 2 -2 -1 -3 -4 8 9 -7 11 -5 12 13 -6 -9
right_child=1 4 5 10 7 6 -8 14 -10 -11 -12 -13 -14 -15 -16
leaf_value=-0.016896624294433834 0.025583985099327345 -0.030516700356325161 0.014775076244561196 0.028173252034951659 -0.014521134493110564 -0.026707156197106136 -0.034821893256396563 0.015548756818645239 0.0092394851356555913 -0.027970649766725621 0.015124896686317205 -0.020154919314926092 -0.034686542198080456 0.019267778308824014 -0.012297163383692499
leaf_count=5 5 166 9 18 13 6 18 5 8 114 5 76 10 5 14
internal_value=0 -0.140047 0.086603 0.241384 -0.223648 -0.0176034 -0.104832 -0.178678 0.00354245 -0.206387 0.258391 -0.146193 -0.0452947 0.0320447 0.00464019
internal_count=477 449 46 28 403 41 32 237 14 218 23 104 28 18 19
shrinkage=0.1


Tree=11
num_leaves=16
num_cat=0
split_feature=4 9 8 1 6 0 6 9 9 0 9 5 5 8 8
split_gain=47.8969 17.0146 3.84432 2.3905 2.06967 5.22768 2.81484 2.04818 4.04657 1.75275 1.66009 1.10221 1.76209 1.72176 1.0903
threshold=0.79200000000000015 0.081050000000000011 0.34070000000000006 9621.5000000000018 0.42545000000000005 0.0022450399419743005 0.45305000000000006 0.033800000000000004 0.071900000000000019 0.0086661844007846021 0.19865000000000002 0.55990000000000018 0.69475000000000009 0.52985000000000004 0.43645000000000006
decision_type=2 2 2 2 2 2 2 2 2 2 2 2 2 2 2
left_child=4 2 -2 -3 -1 6 -6 -4 -9 10 11 -5 13 14 -13
right_child=1 3 7 9 5 -7 -8 8 -10 -11 -12 12 -14 -15 -16
leaf_value=0.030543652966631252 0.024214088514671796 -0.029785197852168922 0.012513237635286485 -0.030055351478904053 0.0097163305379726894 0.026592503095155526 -0.029094305757649364 -0.03186029797383759 0.0097985725346995834 -0.0015125411362795767 -0.027175051451526447 0.0072915594467198325 -0.026546919552860555 0.007660466439440303 -0.022864196379383635
leaf_count=6 5 166 8 24 6 9 7 23 10 19 114 5 30 17 28
internal_value=0 -0.136088 0.0847159 -0.217821 0.23722 0.181125 -0.0265787 -0.0111595 -0.106094 -0.174412 -0.199077 -0.139944 -0.107724 -0.0447577 -0.156649
internal_count=477 449 46 403 28 22 13 41 33 237 218 104 80 50 33
shrinkage=0.1


Tree=12
num_leaves=16
num_cat=0
split_feature=4 9 8 3 9 9 8 0 0 3 6 0 8 8 0
split_gain=38.9954 13.7976 3.08505 2.7062 2.327 2.27936 1.87061 1.83654 1.307 1.25225 1.1066 3.43795 0.984253 1.22479 0.87777
threshold=0.79200000000000015 0.081050000000000011 0.34070000000000006 0.95572326478149117 0.38245000000000001 0.17505000000000001 0.46235000000000009 0.011492226414843551 0.00018345852111500003 16.271604938271608 0.42545000000000005 0.0022450399419743005 0.54670000000000007 0.52740000000000009 0.0060290786948176507
decision_type=2 2 2 2 2 2 2 2 2 2 2 2 2 2 2
left_child=3 2 -2 -1 5 9 8 -6 -4 14 -5 -12 13 -11 -3
right_child=1 4 6 10 7 -7 -8 -9 -10 12 11 -13 -14 -15 -16
leaf_value=-0.013671149956675786 0.022982005280270102 -0.021338948784159917 -0.0024692804009932602 0.029566221174783781 0.015286066756074277 -0.027522473366611951 0.0091620682536501744 -0.036465042867523154 -0.032333831360030631 -0.013612182474505075 -0.0005633938231372524 0.026624772646024197 -0.034109467215552011 0.015842562343438886 0.0037221337340666559
leaf_count=5 5 109 11 6 5 253 18 5 12 14 9 8 6 6 5
internal_value=0 -0.128988 0.0813493 0.227717 -0.206386 -0.222129 -0.00979482 0.0321911 -0.14037 -0.148266 0.243185 0.197396 -0.0299703 0.0183972 -0.191817
internal_count=477 449 46 28 403 393 41 10 23 140 23 17 26 20 114
shrinkage=0.1


Tree=13
num_leaves=16
num_cat=0
split_feature=4 9 1 9 5 5 2 8 9 1 0 8 9 9 2
split_gain=33.7103 11.7833 3.4327 3.09277 2.21226 1.84747 1.76855 1.55585 1.44546 3.80402 1.38344 1.22769 1.14567 0.938567 0.933663
threshold=0.79200000000000015 0.040400000000000005 4998.5000000000009 0.13300000000000003 0.52625000000000011 0.69475000000000009 9621.5000000000018 0.44905 0.040400000000000005 7564.5000000000009 0.00018345852111500003 0.43015000000000009 0.11710000000000002 0.060000000000000005 9621.5000000000018
decision_type=2 2 2 2 2 2 2 2 2 2 2 2 2 2 2
left_child=8 6 -3 4 -4 13 -2 11 -1 -10 -11 -5 -7 -6 -13
right_child=1 2 3 7 5 12 -8 -9 9 10 -12 14 -14 -15 -16
leaf_value=0.029209127307410623 0.02654179630474204 -0.029810716139361093 -0.027350645455503649 -0.024215999772914304 -0.025529861687542288 -0.034816601659471494 -0.0064597130067006962 -0.023153821387687998 -0.033385050705474262 0.0043254653645329088 0.024188844012138156 0.0092870834014904882 -0.0003855967171817422 0.0099506624176537647 -0.031369199504584153
leaf_count=7 5 142 18 16 5 14 6 182 5 7 9 15 9 31 6
internal_value=0 -0.125383 -0.172975 -0.131984 -0.0320827 0.0156648 0.196987 -0.193397 0.224678 0.174651 0.205058 -0.0627332 -0.174754 0.0762179 0.0342669
internal_count=477 449 438 296 77 59 11 219 28 21 16 37 23 36 21
shrinkage=0.1


Tree=14
num_leaves=16
num_cat=0
split_feature=4 9 8 1 0 2 7 9 3 7 7 5 5 5 2
split_gain=28.4864 10.3209 2.32251 1.93909 1.45743 1.30472 1.87505 1.27371 1.22167 1.08495 0.979274 0.870306 1.70597 0.832568 0.76673
threshold=0.79200000000000015 0.081050000000000011 0.34070000000000006 9621.5000000000018 0.0086661844007846021 844.00000000000011 0.34390000000000004 0.22660000000000002 0.95572326478149117 0.27065000000000006 0.44875000000000004 0.69475000000000009 0.66235000000000011 0.52110000000000001 3579.0000000000005
decision_type=2 2 2 2 2 2 2 2 2 2 2 2 2 2 2
left_child=8 2 -2 -3 7 -4 9 11 -1 -7 13 12 14 -10 -5
right_child=1 3 5 4 -6 6 -8 -9 10 -11 -12 -13 -14 -15 -16
leaf_value=-0.0068080384070949478 0.022280549387216037 -0.028313215427202516 0.01365797856160029 -0.0075747239624839105 0.0010244791069695042 -0.023844542363829182 -0.032503799652396831 -0.027630722320682113 0.028655560781685241 0.0095956840156180001 0.011677026261730793 -0.025668691679654878 0.0096017392030088577 0.017152243489951865 -0.023927579818403131
leaf_count=5 5 166 9 34 19 6 18 85 10 8 5 37 13 8 49
internal_value=0 -0.1214 0.0785864 -0.196171 -0.151786 -0.00715079 -0.0842099 -0.178828 0.218563 0.0173198 0.22968 -0.132988 -0.0966989 0.25318 -0.155753
internal_count=477 449 46 403 237 41 32 218 28 14 23 133 96 18 83
shrinkage=0.1


Tree=15
num_leaves=16
num_cat=0
split_feature=4 9 9 9 1 1 6 7 0 0 2 9 5 5 6
split_gain=23.9754 8.69689 1.88198 1.88161 1.80805 1.46398 1.39439 2.82498 1.97698 1.39321 1.19498 1.18822 1.13022 0.790996 1.41442
threshold=0.79200000000000015 0.081050000000000011 0.040400000000000005 0.060000000000000005 9621.5000000000018 4998.5000000000009 0.42545000000000005 0.32885000000000003 0.0022450399419743005 0.0086661844007846021 9621.5000000000018 0.22660000000000002 0.64360000000000006 0.69475000000000009 0.62530000000000008
decision_type=2 2 2 2 2 2 2 2 2 2 2 2 2 2 2
left_child=6 2 10 -4 -3 -5 -1 -8 -9 11 -2 13 -7 14 -6
right_child=1 4 3 5 9 12 7 8 -10 -11 -12 -13 -14 -15 -16
leaf_value=0.028265760429998284 0.02493084018297051 -0.027794236872988043 -0.027267799199289008 -0.032990142008220653 -0.013126985324224053 0.016852413798102994 -0.011202962508338467 -0.00017378609094200045 0.026530070309164516 0.0016911445793101434 -0.0048036609243873995 -0.027219311779667021 -0.023607400631199912 -0.025177476785375359 0.016367236793337177
leaf_count=6 5 166 13 8 91 9 9 7 6 19 6 85 5 37 5
internal_value=0 -0.116703 0.075115 -0.023544 -0.188839 0.0594872 0.210153 0.155054 0.208387 -0.144414 0.186168 -0.172747 0.114596 -0.126661 -0.0909743
internal_count=477 449 46 35 403 22 28 22 13 237 11 218 14 133 96
shrinkage=0.1


Tree=16
num_leaves=16
num_cat=0
split_feature=4 9 8 1 0 6 7 0 9 7 9 9 2 8 8
split_gain=20.7579 7.32896 1.79445 1.6387 1.16176 1.11429 2.20504 1.59987 1.11326 0.996814 1.01872 1.61036 0.705178 0.978146 0.626413
threshold=0.79200000000000015 0.081050000000000011 0.34070000000000006 9621.5000000000018 0.0086661844007846021 0.42545000000000005 0.32885000000000003 0.0015073298712539004 0.22660000000000002 0.25915000000000005 0.033800000000000004 0.071900000000000019 844.00000000000011 0.52985000000000004 0.54915000000000014
decision_type=2 2 2 2 2 2 2 2 2 2 2 2 2 2 2
left_child=5 2 -2 -3 8 -1 -7 -8 12 -4 -11 -12 13 -5 -15
right_child=1 3 9 4 -6 6 7 -9 -10 10 11 -13 -14 14 -16
leaf_value=0.027516262186853185 0.021214023997901371 -0.027267520413499648 -0.026226436940576515 -0.016763270714055055 0.0011845558407775388 -0.0091394900601401794 -0.0036914041739516293 0.024845678846436084 -0.026876268217283894 0.016500999877268233 -0.026423001327148549 0.0094777399444329093 -0.016883877835876668 0.019197478616559974 -0.011876326404441723
leaf_count=6 5 166 8 22 19 9 6 7 85 5 19 9 98 5 8
internal_value=0 -0.113519 0.0716739 -0.1827 -0.138968 0.206139 0.154893 0.204415 -0.166455 -0.0104392 0.0298771 -0.0591973 -0.120551 -0.0313029 0.0935875
internal_count=477 449 46 403 237 28 22 13 218 41 33 28 133 35 13
shrinkage=0.1


Tree=17
num_leaves=16
num_cat=0
split_feature=4 9 1 9 7 9 9 9 4 2 6 3 7 3 0
split_gain=18.1178 6.45435 2.30744 1.63006 1.5106 1.40135 1.03886 2.26002 1.82145 0.986093 0.89118 1.23495 1.02514 0.761996 0.679591
threshold=0.79200000000000015 0.040400000000000005 1709.0000000000002 0.17505000000000001 0.27935000000000004 0.38245000000000001 0.040400000000000005 0.11460000000000002 0.67605000000000015 9621.5000000000018 0.54370000000000018 16.271604938271608 0.51050000000000006 1.1986988623466479 0.0015073298712539004
decision_type=2 2 2 2 2 2 2 2 2 2 2 2 2 2 2
left_child=6 9 -3 4 -4 -5 -1 8 13 -2 -6 14 -13 -8 -12
right_child=1 2 3 5 10 -7 7 -9 -10 -11 11 12 -14 -15 -16
leaf_value=0.027450854187003257 0.023717402642011665 -0.030829603649231097 0.0083989974401701955 -0.023046765003467608 -0.02394817939187973 0.0034588382490786046 -0.029129328905432642 0.030035559869955542 0.017378780398337432 -0.0053276448888906584 -0.017320727516127725 0.017153529076768873 -0.033271804727853495 -0.00058495083835466346 0.006876916275464085
leaf_count=7 5 111 20 175 37 9 5 5 6 6 66 8 5 5 7
internal_value=0 -0.110467 -0.153629 -0.120897 -0.0616622 -0.194052 0.202041 0.152083 0.0623447 0.174461 -0.111557 -0.0665616 0.0983851 -0.0921184 -0.131928
internal_count=477 449 438 327 143 184 28 21 16 11 123 86 13 10 73
shrinkage=0.1


Tree=18
num_leaves=16
num_cat=0
split_feature=4 9 8 1 8 6 0 6 9 9 0 4 5 8 8
split_gain=15.9278 5.32012 1.6432 1.30662 0.996282 0.771823 1.6283 1.47278 0.748786 1.0803 0.675313 0.631588 0.52963 0.555686 0.809148
threshold=0.79200000000000015 0.087500000000000008 0.34070000000000006 1709.0000000000002 0.46235000000000009 0.42545000000000005 0.0015073298712539004 0.45305000000000006 0.17505000000000001 0.38245000000000001 0.00018345852111500003 0.96520000000000017 0.55485000000000018 0.51970000000000016 0.5878000000000001
decision_type=2 2 2 2 2 2 2 2 2 2 2 2 2 2 2
left_child=5 2 -2 -3 10 -1 7 -7 11 -10 -4 -5 -13 -14 -15
right_child=1 3 4 8 -6 6 -8 -9 9 -11 -12 12 13 14 -16
leaf_value=0.026607564610942033 0.020777290028291623 -0.030232539541077297 -0.0039480854222160326 -0.031252524640873657 0.0072978154597073937 0.013297082561828551 0.022018088481796694 -0.025804144195524448 -0.02249230201757399 0.0016389527022797293 -0.030883945132551324 -0.02535117157436342 -0.012522929692293223 0.006782052567458851 -0.030936785155356663
leaf_count=6 5 104 13 15 20 5 10 7 175 9 13 16 43 28 8
internal_value=0 -0.107276 0.0585542 -0.174082 -0.0212984 0.201903 0.154766 -0.0144472 -0.144319 -0.19101 -0.138936 -0.0865975 -0.0640969 -0.0393501 0.0253984
internal_count=477 449 51 398 46 28 22 12 294 184 26 110 95 79 36
shrinkage=0.1


Tree=19
num_leaves=16
num_cat=0
split_feature=4 9 1 9 4 7 9 6 9 1 8 5 8 4 4
split_gain=13.6611 4.7253 1.90683 1.31085 1.18967 1.18521 1.07275 0.921653 0.918763 1.64494 0.858543 0.942236 0.759193 0.606511 0.762003
threshold=0.79200000000000015 0.040400000000000005 1709.0000000000002 0.17255000000000001 0.96520000000000017 0.27935000000000004 0.38245000000000001 0.46840000000000004 0.040400000000000005 7564.5000000000009 0.51970000000000016 0.58320000000000005 0.59940000000000004 0.58535000000000015 0.67605000000000015
decision_type=2 2 2 2 2 2 2 2 2 2 2 2 2 2 2
left_child=8 7 -3 4 -4 -6 -5 -2 -1 -10 -7 -12 -13 -11 -15
right_child=1 2 3 6 5 10 -8 -9 9 13 11 12 -14 14 -16
leaf_value=0.027056848002538186 -0.0018443735475183239 -0.03019840663366441 -0.031464602235608499 -0.021909187261744102 0.01150151812103474 -0.018222223258495502 0.0026947217824933754 0.024709444609235499 -0.028593148005307868 0.023887184706418409 -0.025496976958418308 0.0079338747459578741 -0.030665529216210543 -0.011129848787920525 0.01573203571790362
leaf_count=7 6 111 22 177 15 51 9 5 5 5 18 27 8 5 6
internal_value=0 -0.102925 -0.143312 -0.112165 -0.0551865 -0.0296136 -0.183499 0.159935 0.195272 0.143262 -0.0798232 -0.010619 0.0427197 0.170883 0.102457
internal_count=477 449 438 327 141 119 186 11 28 21 104 53 35 16 11
shrinkage=0.1


Tree=20
num_leaves=16
num_cat=0
split_feature=4 9 1 9 4 7 2 9 8 5 9 9 6 8 8
split_gain=11.763 3.838 1.7773 1.31054 1.13585 0.945528 0.925777 0.917206 0.834377 0.914329 0.794805 1.52603 1.29148 0.781838 0.363642
threshold=0.79200000000000015 0.040400000000000005 1709.0000000000002 0.17255000000000001 0.96520000000000017 0.27935000000000004 9621.5000000000018 0.38245000000000001 0.51970000000000016 0.59240000000000015 0.040400000000000005 0.11460000000000002 0.47280000000000005 0.59940000000000004 0.58370000000000011
decision_type=2 2 2 2 2 2 2 2 2 2 2 2 2 2 2
left_child=10 6 -3 4 -4 -6 -2 14 -7 -10 -1 12 -12 -11 -5
right_child=1 2 3 7 5 8 -8 -9 9 13 11 -13 -14 -15 -16
leaf_value=0.026390060155669179 0.022311673195833784 -0.029925753255323029 -0.031223607929218286 -0.022934077039411381 0.011115414642808687 -0.017474080300242133 -0.0076751612984632886 0.0019004891361647732 -0.019381678574349887 0.010967224733263132 0.01243100632988188 0.028531499417045171 -0.017922106917543697 -0.03009833555183122 0.0020635082425748789
leaf_count=7 5 111 22 170 15 51 6 9 23 22 10 5 6 8 7
internal_value=0 -0.099005 -0.136812 -0.10615 -0.047673 -0.0221673 0.147687 -0.180814 -0.0683619 0.00042851 0.189723 0.139826 0.0581242 0.0684077 -0.215632
internal_count=477 449 438 327 141 119 11 186 104 53 28 21 16 30 177
shrinkage=0.1


Tree=21
num_leaves=16
num_cat=0
split_feature=4 9 1 9 4 7 9 8 5 6 0 6 8 2 7
split_gain=10.3383 3.49189 1.62598 1.17602 0.986848 0.803758 0.786771 0.721183 0.83676 0.708389 1.40326 1.09997 0.698643 0.614745 0.364893
threshold=0.79200000000000015 0.040400000000000005 1709.0000000000002 0.17255000000000001 0.96520000000000017 0.27935000000000004 0.38245000000000001 0.51970000000000016 0.59240000000000015 0.42545000000000005 0.0015073298712539004 0.45305000000000006 0.59940000000000004 9621.5000000000018 0.25170000000000003
decision_type=2 2 2 2 2 2 2 2 2 2 2 2 2 2 2
left_child=9 13 -3 4 -4 14 -5 -7 -9 -1 11 -11 -10 -2 -6
right_child=1 2 3 6 5 7 -8 8 12 10 -12 -13 -14 -15 -16
leaf_value=0.025909960219018119 0.02135258341180982 -0.029721445023317701 -0.030782345835671944 -0.02105740700313851 -0.011486509414125125 -0.016876877411457804 0.0013127752054067773 -0.01931240794178004 0.010475687563981238 0.010872551004274027 0.020930491444047648 -0.025788577295008802 -0.030000125230521365 -0.0043615029634027662 0.014874309869266225
leaf_count=6 5 111 22 177 5 51 9 23 22 5 10 7 8 6 10
internal_value=0 -0.0958009 -0.133005 -0.103123 -0.046118 -0.0222481 -0.176709 -0.0661809 -0.000740595 0.187084 0.136729 -0.0314591 0.0655749 0.150237 0.104126
internal_count=477 449 438 327 141 119 186 104 53 28 22 12 30 11 15
shrinkage=0.1


Tree=22
num_leaves=16
num_cat=0
split_feature=4 9 1 4 5 9 5 9 1 9 5 5 6 5 4
split_gain=9.22805 3.39172 1.41607 0.873962 1.04101 0.922728 0.777971 0.700673 1.28189 0.601574 0.776577 0.635241 0.59348 0.58807 0.513982
threshold=0.79200000000000015 0.040400000000000005 1709.0000000000002 0.92605000000000015 0.61875000000000002 0.19865000000000002 0.52490000000000003 0.040400000000000005 7564.5000000000009 0.090150000000000022 0.60240000000000016 0.60730000000000006 0.46840000000000004 0.83255000000000012 0.58535000000000015
decision_type=2 2 2 2 2 2 2 2 2 2 2 2 2 2 2
left_child=7 12 -3 -4 6 13 -5 -1 -9 -8 -11 -12 -2 -6 -10
right_child=1 2 3 4 5 -7 9 8 14 10 11 -13 -14 -15 -16
leaf_value=0.026099686020811794 -0.0004212938753036129 -0.029515212926903657 -0.026755995470096133 -0.024433949431490895 -0.012094541623216413 -0.027755743493989446 0.012674169546488964 -0.029054679747460871 0.023513972384156531 -0.011572639217050939 0.019200618900387909 -0.012034369978451018 0.023136130252492351 0.015641102728518468 0.0093083947059319824
leaf_count=7 6 111 58 16 74 80 12 5 5 62 7 13 5 5 11
internal_value=0 -0.0939822 -0.13291 -0.10429 -0.0836419 -0.155703 -0.020868 0.184114 0.133548 0.00743709 -0.0387529 0.0894467 0.152787 -0.0850263 0.161349
internal_count=477 449 438 327 269 159 110 28 21 94 82 20 11 79 16
shrinkage=0.1


Tree=23
num_leaves=16
num_cat=0
split_feature=4 9 1 9 7 9 9 9 1 8 6 6 0 3 2
split_gain=8.11436 2.95998 1.28053 0.818708 0.748002 0.673193 0.639305 0.618248 1.10997 0.55245 0.520935 0.507402 0.461889 0.418731 0.53784
threshold=0.79200000000000015 0.040400000000000005 1709.0000000000002 0.17255000000000001 0.27935000000000004 0.38245000000000001 0.15885000000000002 0.040400000000000005 7564.5000000000009 0.54755000000000009 0.74440000000000006 0.46840000000000004 0.00018345852111500003 16.271604938271608 301.00000000000006
decision_type=2 2 2 2 2 2 2 2 2 2 2 2 2 2 2
left_child=7 11 -3 4 -4 -5 10 -1 -9 -8 13 -2 -10 -6 -15
right_child=1 2 3 5 6 -7 9 8 12 -11 -12 -13 -14 14 -16
leaf_value=0.025671367366753822 2.514343746483585e-05 -0.02928789289535387 0.0076168002882938506 -0.020354889370129498 -0.020631791872403694 0.001611887529064401 0.011963722067991969 -0.02833120882562673 0.003243818373359689 -0.030853880634017641 0.011851643857119077 0.02254492246309454 0.019678323047466431 -0.029208625084503323 0.0098601494048906335
leaf_count=7 6 111 19 177 79 9 16 5 7 7 6 5 9 8 6
internal_value=0 -0.0918567 -0.12986 -0.101826 -0.0504651 -0.168499 -0.0942033 0.180308 0.131372 0.0527511 -0.137542 0.148116 0.157928 -0.163787 -0.023763
internal_count=477 449 438 327 141 186 122 28 21 23 99 11 16 93 14
shrinkage=0.1


Tree=24
num_leaves=16
num_cat=0
split_feature=4 9 1 4 5 9 6 7 0 7 5 2 5 1 5
split_gain=7.02347 2.52303 1.20163 0.764934 0.897658 0.837912 0.614015 1.19741 0.840959 0.610979 0.764244 0.472543 0.432669 0.414835 0.404744
threshold=0.79200000000000015 0.040400000000000005 1709.0000000000002 0.92605000000000015 0.61875000000000002 0.19865000000000002 0.42545000000000005 0.31655000000000005 0.0022450399419743005 0.29865000000000003 0.60240000000000016 9621.5000000000018 0.60730000000000006 2655.0000000000005 0.83255000000000012
decision_type=2 2 2 2 2 2 2 2 2 2 2 2 2 2 2
left_child=6 11 -3 -4 9 14 -1 -8 -9 -5 13 -2 -12 -11 -6
right_child=1 2 3 4 5 -7 7 8 -10 10 12 -13 -14 -15 -16
leaf_value=0.025184637020872425 0.02048529261272361 -0.029122447640920476 -0.026304246433298557 0.011211934613275966 -0.010998087883650207 -0.02783664569771321 -0.016615940413042273 0.0012256805159252962 0.023554920916185093 0.015682649575125048 0.018333797741571855 -0.0039135121827663117 -0.0074549734253709843 -0.015732764204232447 0.013768989370264891
leaf_count=6 5 111 58 14 74 80 6 9 7 5 6 6 15 70 5
internal_value=0 -0.0883429 -0.124614 -0.0970285 -0.0764868 -0.148899 0.174288 0.122692 0.167682 -0.0143832 -0.0593309 0.141444 0.0776773 -0.129688 -0.0786703
internal_count=477 449 438 327 269 159 28 22 16 110 96 11 21 75 79
shrinkage=0.1


Tree=25
num_leaves=16
num_cat=0
split_feature=6 8 0 6 9 9 9 3 5 8 2 7 9 8 2
split_gain=6.35076 2.18337 2.00131 1.13558 0.860198 1.07771 0.680726 0.6322 0.697128 0.586459 0.549985 0.544399 0.467079 0.364375 0.337933
threshold=0.53575000000000006 0.39835000000000004 0.0013532348804500501 0.52525000000000011 0.18625000000000003 0.38245000000000001 0.040400000000000005 16.271604938271608 0.53460000000000008 0.51970000000000016 844.00000000000011 0.42525000000000007 0.15885000000000002 0.34070000000000006 8572.5000000000018
decision_type=2 2 2 2 2 2 2 2 2 2 2 2 2 2 2
left_child=1 6 7 11 9 -6 -1 -3 -9 12 -11 -4 -2 -8 -14
right_child=4 2 3 -5 5 -7 13 8 -10 10 -12 -13 14 -15 -16
leaf_value=0.02562999141133461 -0.024796617964942657 -0.022960681818353614 -0.02760953592470319 0.028241074395778928 -0.025413142208145608 0.0050834223140589956 0.001014346080058086 0.016858395294098705 -0.029043575627654684 0.011393426325144205 -0.0085325096296691404 0.0070401142250151776 -0.018338853392684762 0.016880893472130312 0.010563050477309925
leaf_count=10 47 62 6 5 211 7 8 7 9 14 52 5 14 9 11
internal_value=0 0.110017 -0.00599586 0.137568 -0.136254 -0.207481 0.190308 -0.151399 0.0183129 -0.072444 -0.007681 -0.0249506 -0.163154 0.115843 -0.0307176
internal_count=477 121 94 16 356 218 27 78 16 138 66 11 72 17 25
shrinkage=0.1


Tree=26
num_leaves=16
num_cat=0
split_feature=4 9 1 8 9 9 6 4 6 6 9 2 5 8 0
split_gain=5.71473 1.97248 0.71286 0.705293 0.533044 0.881698 0.569152 0.374618 0.398209 0.626124 0.519807 0.433156 0.368108 0.35509 0.400483
threshold=0.79200000000000015 0.087500000000000008 1709.0000000000002 0.34070000000000006 0.040400000000000005 0.11460000000000002 0.47280000000000005 0.92605000000000015 0.56750000000000012 0.55005000000000015 0.19865000000000002 8572.5000000000018 0.60980000000000012 0.46235000000000009 0.00018345852111500003
decision_type=2 2 2 2 2 2 2 2 2 2 2 2 2 2 2
left_child=4 3 -3 -2 -1 6 -6 -4 9 -9 11 -10 -11 14 -5
right_child=1 2 7 13 5 -7 -8 8 10 12 -12 -13 -14 -15 -16
leaf_value=0.025397985644228217 0.018516649634727236 -0.028694551920000779 -0.025063223935880868 -0.0012721151241847559 0.010100342301956888 0.027041386778820644 -0.01524271563646146 -0.012036380956099105 -0.015911126036001113 0.013604491881408904 -0.022771688870444631 0.0033230786007875874 -0.02994450225725211 0.0059283734923621084 -0.028025435002905677
leaf_count=7 5 104 51 13 10 5 6 55 46 15 95 26 6 20 13
internal_value=0 -0.0841378 -0.14032 0.0484508 0.172369 0.121836 0.0474946 -0.11418 -0.0967863 -0.030862 -0.139933 -0.069954 0.0954577 -0.0170098 -0.104346
internal_count=477 449 398 51 28 21 16 294 243 76 167 72 21 46 26
shrinkage=0.1


Tree=27
num_leaves=16
num_cat=0
split_feature=6 8 0 6 9 9 3 5 9 7 8 9 2 8 2
split_gain=5.17514 1.77097 1.62343 0.736392 0.735741 0.849441 0.600733 0.61452 0.551321 0.510903 0.454439 0.424969 0.419 0.32583 0.319991
threshold=0.53575000000000006 0.39835000000000004 0.0013532348804500501 0.52525000000000011 0.18625000000000003 0.38245000000000001 16.271604938271608 0.53460000000000008 0.040400000000000005 0.42525000000000007 0.51970000000000016 0.15885000000000002 844.00000000000011 0.34070000000000006 8572.5000000000018
decision_type=2 2 2 2 2 2 2 2 2 2 2 2 2 2 2
left_child=1 8 6 9 10 -6 -3 -8 -1 -4 11 -2 -12 -10 -13
right_child=4 2 3 -5 5 -7 7 -9 13 -11 12 14 -14 -15 -16
leaf_value=0.025081483475569724 -0.024164234128427633 -0.022724899927759716 -0.027013765731635948 0.026835482294456356 -0.024857537318029879 0.0048073103299432242 0.016932213636088829 -0.028439418720129256 0.0010021119476137581 0.009529637385771568 0.01023887380957013 -0.018474883568593014 -0.0081189006835002513 0.01687866313171477 0.010921600337787241
leaf_count=10 47 62 6 5 211 7 7 9 8 5 14 14 52 9 11
internal_value=0 0.107389 -0.00530671 0.13746 -0.13127 -0.203965 -0.143169 0.0270994 0.185215 -0.00137973 -0.0700009 -0.15435 -0.0098974 0.114851 -0.0238186
internal_count=477 121 94 16 356 218 78 16 27 11 138 72 66 17 25
shrinkage=0.1


Tree=28
num_leaves=16
num_cat=0
split_feature=4 8 9 9 0 9 1 9 9 5 6 0 8 7 7
split_gain=4.67757 1.68207 0.654687 0.522311 0.48803 0.425559 0.701223 0.413092 0.465697 0.542 0.494993 0.477472 0.403021 0.381412 0.562517
threshold=0.79200000000000015 0.31985000000000002 0.21325000000000002 0.38245000000000001 0.011492226414843551 0.040400000000000005 7564.5000000000009 0.20800000000000005 0.033800000000000004 0.58320000000000005 0.5565500000000001 0.0060290786948176507 0.49755000000000005 0.49800000000000005 0.48510000000000003
decision_type=2 2 2 2 2 2 2 2 2 2 2 2 2 2 2
left_child=5 -2 7 -4 -5 -1 -7 8 -3 -10 12 13 -11 14 -12
right_child=1 2 3 4 -6 6 -8 -9 9 10 11 -13 -14 -15 -16
leaf_value=0.024947769019850279 0.017895284193012402 0.0060544445437417434 -0.02338855924277837 0.010867082070288371 -0.035304124037082024 -0.026157231770418562 0.014793685889623912 0.022837414709517723 -0.021586648304226519 -0.01479034520020156 -0.014173820911904689 0.014273043527797956 0.014733917188685284 -0.030820155503597759 0.017020314056121848
leaf_count=7 7 8 187 5 5 5 16 6 77 14 88 5 12 30 5
internal_value=0 -0.0802156 -0.108017 -0.190968 -0.00533709 0.169573 0.121345 -0.0705821 -0.0800938 -0.103613 -0.0635835 -0.107348 0.0636245 -0.136209 -0.0988183
internal_count=477 449 442 197 10 28 21 245 239 231 154 128 26 123 93
shrinkage=0.1


Tree=29
num_leaves=16
num_cat=0
split_feature=6 8 0 3 9 9 5 6 9 7 6 6 9 6 1
split_gain=4.23713 1.35926 1.19944 0.635834 0.601484 0.67662 0.594085 0.592514 0.452679 0.391007 0.375061 0.462318 0.39395 0.310477 0.273624
threshold=0.53575000000000006 0.39835000000000004 0.0013532348804500501 16.271604938271608 0.18625000000000003 0.38245000000000001 0.53460000000000008 0.52525000000000011 0.040400000000000005 0.42525000000000007 0.74440000000000006 0.65675000000000006 0.071900000000000019 0.78745000000000009 1709.0000000000002
decision_type=2 2 2 2 2 2 2 2 2 2 2 2 2 2 2
left_child=1 8 3 -3 10 -6 -5 9 -1 -4 11 12 -2 -12 -14
right_child=4 2 7 6 5 -7 -8 -9 -10 -11 13 -13 14 -15 -16
leaf_value=0.024251877903623362 -0.028854719385770351 -0.022090850438886464 -0.025138660817098004 0.018252881259490612 -0.024155471982809755 0.0039671543209153799 -0.028141306557259826 0.025876976262163745 0.011028977049552073 0.008971929579194635 0.018829348589990112 -0.032158524588856971 -0.029720212299422025 -0.027777168892142219 -0.0017260384686063829
leaf_count=10 12 62 6 7 211 7 9 5 17 5 5 21 15 6 79
internal_value=0 0.103894 -0.000446986 -0.124245 -0.126827 -0.197945 0.0497016 0.131965 0.177591 -0.000198485 -0.0684193 -0.0948343 -0.0653966 0.11017 -0.0365983
internal_count=477 121 94 78 356 218 16 16 27 11 138 127 106 11 94
shrinkage=0.1


Tree=30
num_leaves=16
num_cat=0
split_feature=4 8 3 9 9 6 7 6 7 6 7 4 8 8 5
split_gain=3.77811 1.36906 0.533355 0.400162 0.401982 0.396373 0.664512 0.620297 0.33843 0.333515 0.473241 0.437699 0.364865 0.526087 0.317031
threshold=0.79200000000000015 0.31985000000000002 0.18954610150015083 0.21325000000000002 0.31230000000000008 0.42545000000000005 0.39090000000000008 0.47280000000000005 0.38715000000000005 0.74440000000000006 0.49800000000000005 0.96520000000000017 0.58615000000000006 0.54215000000000013 0.63650000000000018
decision_type=2 2 2 2 2 2 2 2 2 2 2 2 2 2 2
left_child=5 -2 -3 9 -5 -1 7 -7 -6 10 11 -4 13 -13 -10
right_child=1 2 3 4 8 6 -8 -9 14 -11 -12 12 -14 -15 -16
leaf_value=0.024348098107122754 0.017116933049001897 -0.028278006879129493 -0.023954074425694902 -0.025456739365977726 -0.03080709621974197 0.0056481833684610475 0.018526474822490206 -0.037341527008132307 0.0051756711387048078 0.012902755589104618 -0.031199063108525962 -0.0024942130538071761 0.016508513580076788 -0.028268980763793652 -0.030181241582692961
leaf_count=6 7 77 31 103 15 6 10 6 19 8 24 118 8 27 12
internal_value=0 -0.0771397 -0.104182 -0.0879397 -0.165834 0.163083 0.111961 -0.0418091 -0.0702628 -0.0574577 -0.072222 -0.0546378 -0.0320016 -0.0518718 -0.00790343
internal_count=477 449 442 365 149 28 22 12 46 216 208 184 153 145 31
shrinkage=0.1


Tree=31
num_leaves=16
num_cat=0
split_feature=4 8 3 9 4 1 0 6 3 9 9 5 5 8 5
split_gain=3.36842 1.15403 0.49916 0.396604 0.385073 0.387274 0.363173 0.774549 0.347775 0.31889 0.439912 0.277288 0.474255 0.326136 0.427701
threshold=0.79200000000000015 0.31985000000000002 0.18954610150015083 0.033800000000000004 0.92605000000000015 9621.5000000000018 0.0022450399419743005 0.45305000000000006 0.7010124472573841 0.17105000000000001 0.15630000000000002 0.69475000000000009 0.83255000000000012 0.58370000000000011 0.55990000000000018
decision_type=2 2 2 2 2 2 2 2 2 2 2 2 2 2 2
left_child=6 -2 -3 -4 -5 8 7 -1 9 10 -6 13 -13 14 -7
right_child=1 2 3 4 5 11 -8 -9 -10 -11 -12 12 -14 -15 -16
leaf_value=0.015177946298399917 0.016091904652108566 -0.028151360021994087 0.0060298423040182928 -0.025139708540592429 -0.029686936999288711 -0.023781182313972655 0.022037985129269307 -0.021084945395129222 -0.028469582943992114 -0.029120607932062715 0.02569170619354676 -0.02527627641373394 0.010532593716089063 0.015926213315981593 -0.0020006023107777353
leaf_count=10 7 77 8 61 9 27 11 7 59 17 5 48 6 8 117
internal_value=0 -0.0748178 -0.100254 -0.0844014 -0.10156 -0.0835638 0.159115 0.0936097 -0.192369 -0.0476771 0.0814507 -0.0556463 -0.162449 -0.0300577 -0.0511041
internal_count=477 449 442 365 357 296 28 17 90 31 14 206 54 152 144
shrinkage=0.1


Tree=32
num_leaves=16
num_cat=0
split_feature=6 1 4 9 9 8 0 5 8 2 9 5 4 7 9
split_gain=3.03244 1.00335 0.837807 0.50442 0.548425 0.483914 0.266298 0.306002 0.254857 0.32583 0.302384 0.236239 0.21703 0.313145 0.556818
threshold=0.53575000000000006 1709.0000000000002 0.79200000000000015 0.19865000000000002 0.38245000000000001 0.35085000000000005 0.0022450399419743005 0.43185000000000001 0.51970000000000016 844.00000000000011 0.15885000000000002 0.67575000000000007 0.96520000000000017 0.34390000000000004 0.20635000000000003
decision_type=2 2 2 2 2 2 2 2 2 2 2 2 2 2 2
left_child=1 -1 6 8 -5 -4 7 -3 10 -10 -2 -12 -7 -14 -15
right_child=3 2 5 4 -6 12 -8 -9 9 -11 11 -13 13 14 -16
leaf_value=-0.031482324357569445 -0.022542290004221824 0.019142317409618546 0.016520131944543767 -0.024150506851722334 0.0031245066445489888 -0.019523998943549739 0.023508624167037837 0.00075788854496868646 0.010086506053430606 -0.0083280581490426352 -0.018935908288019578 0.0079119755330527286 0.0080388040982215213 -0.022872265498321595 0.018484094348570311
leaf_count=22 47 5 5 201 7 20 10 7 14 55 15 17 16 31 5
internal_value=0 0.0968128 0.113473 -0.117281 -0.1933 0.0244422 0.180397 0.119738 -0.0623386 -0.0102693 -0.132158 -0.0238954 -0.032533 -0.0014793 -0.107525
internal_count=477 121 99 356 208 77 22 12 148 69 79 32 72 52 36
shrinkage=0.1


Tree=33
num_leaves=16
num_cat=0
split_feature=4 9 1 9 9 4 6 5 4 3 9 5 6 7 6
split_gain=2.70379 0.988622 0.695858 0.382691 0.531958 0.367436 0.377684 0.439492 0.325291 0.257972 0.255095 0.261361 0.251138 0.240398 0.209718
threshold=0.79200000000000015 0.040400000000000005 1709.0000000000002 0.040400000000000005 0.11460000000000002 0.92605000000000015 0.56480000000000008 0.52490000000000003 0.67605000000000015 1.1986988623466479 0.19865000000000002 0.63650000000000018 0.46840000000000004 0.42740000000000006 0.57665000000000011
decision_type=2 2 2 2 2 2 2 2 2 2 2 2 2 2 2
left_child=3 12 -3 -1 8 -4 7 -7 9 -5 14 -12 -2 -9 -8
right_child=1 2 5 4 -6 6 10 13 -10 -11 11 -13 -14 -15 -16
leaf_value=0.024493907812169251 -0.0011729987813993298 -0.028566113613867329 -0.024001975102876046 -0.026952712100836482 0.02537369636205114 -0.021940107133354276 -0.031523213317342938 0.0065750004882914759 0.011337651847972956 0.0012044956325741169 -0.0076366916152150023 -0.028629980436119674 0.020164711196184917 -0.015403868152073558 -0.0040755530973819124
leaf_count=7 6 111 58 5 5 16 10 55 6 5 28 69 5 16 75
internal_value=0 -0.0705184 -0.100615 0.152452 0.100432 -0.0753014 -0.0582311 0.00292731 0.0322706 -0.0815405 -0.110386 -0.191947 0.120504 0.0391988 -0.0614453
internal_count=477 449 438 28 21 327 269 87 16 10 182 97 11 71 85
shrinkage=0.1


Tree=34
num_leaves=16
num_cat=0
split_feature=4 9 1 4 5 9 9 9 5 5 9 5 9 0 6
split_gain=2.43783 0.865758 0.64652 0.341344 0.331943 0.423316 0.328741 0.471924 0.302663 0.288196 0.261187 0.261069 0.231099 0.436256 0.211914
threshold=0.79200000000000015 0.040400000000000005 1709.0000000000002 0.92605000000000015 0.63945000000000018 0.19865000000000002 0.040400000000000005 0.11460000000000002 0.52490000000000003 0.52950000000000008 0.064000000000000015 0.55990000000000018 0.17105000000000001 0.0086661844007846021 0.46840000000000004
decision_type=2 2 2 2 2 2 2 2 2 2 2 2 2 2 2
left_child=6 14 -3 -4 8 -6 -1 10 -5 -10 -8 -11 -13 -14 -2
right_child=1 2 3 4 5 -7 7 -9 9 11 -12 12 13 -15 -16
leaf_value=0.023953822423681423 -0.0008338538194337348 -0.028389673658515614 -0.023779299493408568 -0.020687785761113377 -0.0063993426525014475 -0.028474615500472589 0.0092751075306088861 0.025226046244364888 0.016943861086105828 -0.020865182915441021 -0.010134418545520685 0.007086239636724662 -0.020079580482779871 0.009162517968241737 0.019280289911333837
leaf_count=7 6 111 58 16 74 68 9 5 5 20 7 31 45 10 5
internal_value=0 -0.06841 -0.0973172 -0.0727003 -0.0560738 -0.124204 0.150357 0.10062 -0.0129481 0.00961025 0.0352099 -0.0194847 0.00683765 -0.0715857 0.11545
internal_count=477 449 438 327 269 142 28 21 127 111 16 106 86 55 11
shrinkage=0.1


Tree=35
num_leaves=16
num_cat=0
split_feature=6 8 0 6 3 5 9 9 9 7 4 6 7 8 7
split_gain=2.22117 0.805267 0.670371 0.43729 0.423838 0.431685 0.398341 0.387181 0.412483 0.293002 0.236734 0.228744 0.325197 0.21587 0.211977
threshold=0.53575000000000006 0.39835000000000004 0.0013532348804500501 0.52525000000000011 16.271604938271608 0.53460000000000008 0.040400000000000005 0.19865000000000002 0.38245000000000001 0.42525000000000007 0.89615000000000011 0.74440000000000006 0.49800000000000005 0.34070000000000006 0.48510000000000003
decision_type=2 2 2 2 2 2 2 2 2 2 2 2 2 2 2
left_child=1 6 4 9 -3 -6 -1 10 -9 -4 -2 12 14 -8 -12
right_child=7 2 3 -5 5 -7 13 8 -10 -11 11 -13 -14 -15 -16
leaf_value=0.02371457596576998 -0.026402992407419959 -0.020820499506702686 -0.026370632983898374 0.025213953719861699 0.017638675852090512 -0.027490435243286739 -0.0017764443832571813 -0.023319985142416021 0.0022308330667838816 0.0079666285073897204 -0.0060467052590442751 0.013529820252899206 -0.030931097551590337 0.014451234257935592 0.016123914464591556
leaf_count=10 18 62 6 5 7 9 8 201 7 5 98 8 19 9 5
internal_value=0 0.0908516 -0.00355024 0.116571 -0.110969 0.0479577 0.160639 -0.109165 -0.184407 -0.0149436 -0.05858 -0.0396374 -0.0631154 0.0865527 -0.0362157
internal_count=477 121 94 16 78 16 27 356 208 11 148 130 122 17 103
shrinkage=0.1


Tree=36
num_leaves=16
num_cat=0
split_feature=6 1 4 5 0 9 9 8 9 9 4 0 5 6 7
split_gain=2.00207 0.754782 0.582564 0.383157 0.396086 0.361368 0.347212 0.239351 0.33296 0.21989 0.202241 0.202077 0.253163 0.193628 0.293113
threshold=0.53575000000000006 1709.0000000000002 0.79200000000000015 0.52490000000000003 0.00018345852111500003 0.19865000000000002 0.38245000000000001 0.40670000000000006 0.20635000000000003 0.090150000000000022 0.89615000000000011 0.0022450399419743005 0.43185000000000001 0.74440000000000006 0.49800000000000005
decision_type=2 2 2 2 2 2 2 2 2 2 2 2 2 2 2
left_child=1 -1 11 4 -4 10 -7 -5 9 -9 -2 12 -3 14 -12
right_child=5 2 3 7 -6 6 -8 8 -10 -11 13 -13 -14 -15 -16
leaf_value=-0.031604321570143042 -0.025517752782416893 0.018719285343706461 0.00014263814730128076 0.018899170951977545 -0.032308822918990322 -0.022938833388714636 0.00080919961163483938 0.0062412703853107617 0.026315720222408846 -0.020609138419348638 -0.0035409436835518501 0.02257112201425893 -4.8034070204204884e-05 0.012668094896644277 -0.030716855610376927
leaf_count=22 18 5 18 6 16 201 7 8 5 24 103 10 7 8 19
internal_value=0 0.088998 0.105206 0.0239753 -0.0879108 -0.106662 -0.181775 0.0937406 0.0106279 -0.0710338 -0.0565121 0.17008 0.11098 -0.0388153 -0.0609659
internal_count=477 121 99 77 34 356 208 43 37 32 148 22 12 130 122
shrinkage=0.1


Tree=37
num_leaves=16
num_cat=0
split_feature=6 8 0 6 9 9 9 3 5 7 8 5 6 6 4
split_gain=1.8492 0.654846 0.55131 0.393847 0.355067 0.321964 0.334267 0.310587 0.292836 0.231809 0.199485 0.17873 0.174483 0.187316 0.16084
threshold=0.53575000000000006 0.39835000000000004 0.0013532348804500501 0.52525000000000011 0.040400000000000005 0.19865000000000002 0.38245000000000001 16.271604938271608 0.53460000000000008 0.42525000000000007 0.42540000000000006 0.58320000000000005 0.5565500000000001 0.57665000000000011 0.89615000000000011
decision_type=2 2 2 2 2 2 2 2 2 2 2 2 2 2 2
left_child=1 4 7 9 14 10 -7 -3 -9 -4 -2 -12 -13 -14 -1
right_child=5 2 3 -5 -6 6 -8 8 -10 -11 11 12 13 -15 -16
leaf_value=0.028893415895945424 -0.030230274816658621 -0.019577539747309743 -0.025547017694448844 0.024825658895107711 0.0081684048642287396 -0.022669533962054206 0.00091245923983890797 0.014948759650401084 -0.025633311813616125 0.0068978632345404736 -0.029626239273592571 0.0099877208431600768 -0.025191186947853335 -0.0032291587751693135 0.013862133219255633
leaf_count=5 13 62 6 5 17 201 7 7 9 5 13 15 16 91 5
internal_value=0 0.088564 -0.00229851 0.112532 0.155213 -0.104529 -0.177515 -0.107228 0.0394809 -0.0202933 -0.0563799 -0.041685 -0.0282066 -0.055744 0.232627
internal_count=477 121 94 16 27 356 208 78 16 11 148 135 122 107 10
shrinkage=0.1


Tree=38
num_leaves=16
num_cat=0
split_feature=4 8 3 6 7 0 9 1 4 3 5 5 5 8 5
split_gain=1.68906 0.606006 0.325765 0.262434 0.397407 0.324641 0.191816 0.258982 0.215123 0.205891 0.194953 0.163524 0.300433 0.206575 0.297658
threshold=0.79200000000000015 0.31985000000000002 0.18954610150015083 0.42545000000000005 0.32885000000000003 0.0022450399419743005 0.033800000000000004 9621.5000000000018 0.92605000000000015 0.7010124472573841 0.5948500000000001 0.69475000000000009 0.83255000000000012 0.58370000000000011 0.55990000000000018
decision_type=2 2 2 2 2 2 2 2 2 2 2 2 2 2 2
left_child=3 -2 -3 -1 -5 -6 -4 9 -9 10 -8 13 -13 14 -10
right_child=1 2 6 4 5 -7 7 8 11 -11 -12 12 -14 -15 -16
leaf_value=0.023147906947595366 0.014440929698478306 -0.027623406411477477 0.0049039410267270288 -0.0090891220798397579 -0.001515883103837907 0.02237595914381137 0.015018101160723288 -0.021577574450237905 -0.023126099843101128 -0.027963214521778537 -0.018496855868970787 -0.023332274905305692 0.010402675450222471 0.015240420433577366 -0.0010872609201624174
leaf_count=6 7 77 8 9 7 6 7 52 27 63 29 48 6 8 117
internal_value=0 -0.0623834 -0.0846506 0.143348 0.091356 0.151891 -0.0703391 -0.084873 -0.0602783 -0.191716 -0.0647267 -0.0430097 -0.142573 -0.020232 -0.0406234
internal_count=477 449 442 28 22 13 365 357 258 99 36 206 54 152 144
shrinkage=0.1


Tree=39
num_leaves=16
num_cat=0
split_feature=4 9 1 9 9 4 5 9 5 4 9 3 9 9 8
split_gain=1.53178 0.563092 0.471307 0.244324 0.338652 0.217404 0.228495 0.300342 0.245999 0.187517 0.181765 0.180939 0.164816 0.145368 0.120619
threshold=0.79200000000000015 0.040400000000000005 1709.0000000000002 0.040400000000000005 0.11460000000000002 0.92605000000000015 0.63945000000000018 0.19865000000000002 0.52490000000000003 0.67605000000000015 0.023000000000000003 1.1986988623466479 0.090150000000000022 0.075750000000000012 0.5878000000000001
decision_type=2 2 2 2 2 2 2 2 2 2 2 2 2 2 2
left_child=3 10 -3 -1 9 -4 8 13 -7 11 -2 -5 -10 -8 -15
right_child=1 2 5 4 -6 6 7 -9 12 -11 -12 -13 -14 14 -16
leaf_value=0.023402373659548448 -0.00042420967002075485 -0.027933501292940224 -0.022073651006183529 -0.025514535305134641 0.024844041708563403 -0.02059283592494135 -0.029916929325060522 -0.027949271006373122 0.010820351535043847 0.010380333543207953 0.020230082130479693 0.0021491235916886744 -0.0022574453756291652 -0.0016523704085740125 -0.029404353394262134
leaf_count=7 6 111 58 5 5 16 8 68 13 6 5 5 98 58 8
internal_value=0 -0.0606494 -0.0873147 0.140629 0.0922874 -0.0646546 -0.0502777 -0.115071 -0.0105254 0.0314687 0.107642 -0.0695453 0.0123725 -0.0609187 -0.0368732
internal_count=477 449 438 28 21 327 269 142 127 16 11 10 111 74 66
shrinkage=0.1


Tree=40
num_leaves=16
num_cat=0
split_feature=6 8 0 6 9 9 9 3 5 7 4 8 4 8 9
split_gain=1.37793 0.501057 0.429144 0.294477 0.289835 0.250495 0.276752 0.232372 0.221771 0.20224 0.194541 0.157656 0.144857 0.144381 0.130195
threshold=0.53575000000000006 0.39835000000000004 0.0013532348804500501 0.52525000000000011 0.040400000000000005 0.18625000000000003 0.38245000000000001 16.271604938271608 0.53460000000000008 0.42525000000000007 0.89615000000000011 0.34070000000000006 0.89615000000000011 0.51970000000000016 0.15885000000000002
decision_type=2 2 2 2 2 2 2 2 2 2 2 2 2 2 2
left_child=1 4 7 9 12 10 -7 -3 -9 -4 -2 -6 -1 14 -12
right_child=5 2 3 -5 11 6 -8 8 -10 -11 13 -13 -14 -15 -16
leaf_value=0.02871986529264868 -0.026340115519489945 -0.018647245584002652 -0.024902083995377956 0.023718936210959871 -0.0021624709745408539 -0.021048257551531186 0.0017061931634151069 0.013803664332377955 -0.024567590066592555 0.0075591195885683464 -0.017701706826860893 0.013452548050815975 0.01316932949653328 0.001925591036894853 -0.00072212112059967179
leaf_count=5 18 62 6 5 8 211 7 7 9 5 43 9 5 52 25
internal_value=0 0.0836816 -0.00257318 0.107396 0.147142 -0.0962031 -0.163514 -0.103149 0.0344605 -0.0150127 -0.0494653 0.076779 0.225248 -0.030115 -0.0979734
internal_count=477 121 94 16 27 356 218 78 16 11 138 17 10 120 68
shrinkage=0.1


Tree=41
num_leaves=16
num_cat=0
split_feature=4 8 3 6 7 0 9 1 3 4 9 9 5 5 8
split_gain=1.24993 0.487351 0.26829 0.2214 0.321915 0.263216 0.143001 0.220643 0.18236 0.164325 0.157639 0.274283 0.131153 0.230502 0.150159
threshold=0.79200000000000015 0.31985000000000002 0.18954610150015083 0.42545000000000005 0.32885000000000003 0.0022450399419743005 0.033800000000000004 9621.5000000000018 0.7010124472573841 0.92605000000000015 0.17105000000000001 0.15630000000000002 0.69475000000000009 0.83255000000000012 0.58370000000000011
decision_type=2 2 2 2 2 2 2 2 2 2 2 2 2 2 2
left_child=3 -2 -3 -1 -5 -6 -4 8 10 -9 11 -8 14 -14 -11
right_child=1 2 6 4 5 -7 7 9 -10 12 -12 -13 13 -15 -16
leaf_value=0.022599194240302545 0.014126156412423188 -0.027357046835756255 0.0044667388049168654 -0.008799493763726355 -0.0013584322932044309 0.02183327499055341 -0.02970193325756508 -0.020555340477287257 -0.027812402576053774 -0.0036171831164573788 -0.028715065233593795 0.022688197358475399 -0.022299266836562623 0.0090203149824930381 0.013909462454639546
leaf_count=6 7 77 8 9 7 6 12 52 63 144 19 5 48 6 8
internal_value=0 -0.0569339 -0.0784821 0.135455 0.0844704 0.145301 -0.0651205 -0.0786425 -0.186399 -0.0547674 -0.0585905 0.0475286 -0.039245 -0.13517 -0.0177658
internal_count=477 449 442 28 22 13 365 357 99 258 36 17 206 54 152
shrinkage=0.1


Tree=42
num_leaves=16
num_cat=0
split_feature=4 9 1 9 9 9 4 5 9 5 9 9 9 6 6
split_gain=1.1408 0.434337 0.392076 0.204764 0.274735 0.167871 0.163918 0.179871 0.253744 0.196323 0.158047 0.129543 0.129244 0.109918 0.232932
threshold=0.79200000000000015 0.040400000000000005 1709.0000000000002 0.040400000000000005 0.11460000000000002 0.064000000000000015 0.92605000000000015 0.63945000000000018 0.19865000000000002 0.52490000000000003 0.023000000000000003 0.090150000000000022 0.075750000000000012 0.56480000000000008 0.55005000000000015
decision_type=2 2 2 2 2 2 2 2 2 2 2 2 2 2 2
left_child=3 10 -3 -1 5 -5 -4 9 12 -8 -2 -11 -9 14 -13
right_child=1 2 6 4 -6 -7 7 8 -10 11 -12 13 -14 -15 -16
leaf_value=0.02287184295013614 -0.00084344996669743718 -0.027667584676612789 -0.020995870016568979 0.0086796204146723874 0.024252957651147392 -0.010050307808331055 -0.019451909514400418 -0.02986413986414381 -0.027675057392120173 0.010319820172283096 0.0196952655378572 -0.0069717879956932771 -0.0033112596660090318 -0.010603196323568979 0.013770634050802305
leaf_count=7 6 111 58 9 5 7 16 8 68 13 5 42 66 40 16
internal_value=0 -0.0554533 -0.0807028 0.133007 0.0859989 0.0284918 -0.0594384 -0.0466076 -0.108682 -0.00955689 0.102131 0.0121155 -0.0570353 -0.020327 0.0193485
internal_count=477 449 438 28 21 16 327 269 142 127 11 111 74 98 58
shrinkage=0.1


Tree=43
num_leaves=16
num_cat=0
split_feature=6 1 8 6 0 8 8 9 1 8 2 0 8 8 9
split_gain=1.07001 0.40887 0.330278 0.303924 0.212557 0.19869 0.207969 0.409597 0.1857 0.176954 0.148217 0.172249 0.133226 0.167978 0.122341
threshold=0.53575000000000006 1709.0000000000002 0.39835000000000004 0.53280000000000005 0.0040616308693814012 0.42540000000000006 0.44905 0.17505000000000001 4998.5000000000009 0.49755000000000005 3579.0000000000005 0.0018165909274070501 0.57115000000000016 0.52740000000000009 0.081050000000000011
decision_type=2 2 2 2 2 2 2 2 2 2 2 2 2 2 2
left_child=1 -1 4 12 -3 -2 8 9 -7 -8 11 -11 13 14 -4
right_child=5 2 3 -5 -6 6 7 -9 -10 10 -12 -13 -14 -15 -16
leaf_value=-0.03019104850423587 -0.0300641121000868 0.01082693504806588 0.0030229794716766529 0.020906876176477105 0.026734355077770396 -0.030149148091657557 -0.020932387371228649 -0.020326934140485531 0.011689160958665214 0.010488099032326829 -0.0072616499360644935 -0.033576674363096054 0.013460266269283247 -0.0271687653001993 -0.014376729394370041
leaf_count=22 27 20 17 8 5 11 25 197 22 19 50 5 6 17 26
internal_value=0 0.0792057 0.0927795 0.0155818 0.148839 -0.09172 -0.077786 -0.101157 0.0612863 -0.0279318 0.00264724 0.0747829 -0.0333429 -0.0642984 -0.0268658
internal_count=477 121 99 74 25 356 329 296 33 99 74 24 66 60 43
shrinkage=0.1


Tree=44
num_leaves=16
num_cat=0
split_feature=6 1 8 6 0 8 8 9 1 8 2 0 8 9 8
split_gain=0.945674 0.363273 0.313855 0.308495 0.203149 0.18056 0.179666 0.374664 0.165886 0.157235 0.133496 0.138907 0.115994 0.160284 0.208437
threshold=0.53575000000000006 1709.0000000000002 0.39835000000000004 0.53280000000000005 0.0040616308693814012 0.42540000000000006 0.44905 0.17505000000000001 4998.5000000000009 0.49755000000000005 3579.0000000000005 0.0018165909274070501 0.57115000000000016 0.081050000000000011 0.42020000000000007
decision_type=2 2 2 2 2 2 2 2 2 2 2 2 2 2 2
left_child=1 -1 4 12 -3 -2 8 9 -7 -8 11 -11 13 -4 -15
right_child=5 2 3 -5 -6 6 7 -9 -10 10 -12 -13 -14 14 -16
leaf_value=-0.030004730540471838 -0.029634371601950926 0.010500452861881067 0.00020600092771622575 0.020795839851326783 0.026584586225358128 -0.02999094218233625 -0.020294186514253895 -0.019848602102146701 0.010884433395055737 0.0099776416149701588 -0.006950766182065438 -0.032109461908766394 0.012354097650375775 0.00904133649544284 -0.027362128696639915
leaf_count=22 27 20 19 8 5 11 25 197 22 19 50 5 6 6 35
internal_value=0 0.0758262 0.0885686 0.0122924 0.144658 -0.0886047 -0.075214 -0.0976094 0.0563493 -0.0263325 0.00282551 0.073249 -0.0384264 -0.067436 -0.177594
internal_count=477 121 99 74 25 356 329 296 33 99 74 24 66 60 41
shrinkage=0.1


Tree=45
num_leaves=16
num_cat=0
split_feature=6 6 7 8 8 1 9 9 5 4 0 7 5 6 6
split_gain=0.878354 0.33789 0.292003 0.278614 0.245713 0.210618 0.17571 0.17957 0.142539 0.322508 0.137921 0.132386 0.119082 0.116824 0.251412
threshold=0.53575000000000006 0.40925000000000006 0.37525000000000003 0.52540000000000009 0.5777000000000001 1709.0000000000002 0.18625000000000003 0.38245000000000001 0.55990000000000018 0.91350000000000009 0.0035530257456000002 0.21255000000000004 0.5948500000000001 0.74440000000000006 0.65675000000000006
decision_type=2 2 2 2 2 2 2 2 2 2 2 2 2 2 2
left_child=1 -1 10 5 -5 -4 13 -8 9 -7 11 -3 -13 14 -2
right_child=6 2 3 4 -6 8 7 -9 -10 -11 -12 12 -14 -15 -16
leaf_value=0.025157462145050154 -0.0034524328603339608 -0.018710268149152842 -0.031212245800733847 -0.025413842700151804 0.012345360148557832 0.01808323451540533 -0.019753059123546746 0.00072084773793771456 0.028387810385685025 -0.024064808365637513 -0.025546361930877993 0.0037273743128160876 -0.031226548293081594 0.010763185542878678 -0.032054630409202742
leaf_count=6 106 11 6 23 6 8 211 7 5 8 6 37 5 11 21
internal_value=0 0.0749067 0.0484713 0.115183 -0.0629653 0.16387 -0.087169 -0.152264 0.18141 0.124237 -0.0210818 -0.00198243 0.0231203 -0.0437521 -0.0644436
internal_count=477 121 115 56 29 27 356 218 21 16 59 53 42 138 127
shrinkage=0.1


Tree=46
num_leaves=16
num_cat=0
split_feature=4 8 3 9 9 9 6 7 3 9 9 5 2 0 3
split_gain=0.81091 0.324144 0.198909 0.16771 0.190425 0.125785 0.108918 0.219804 0.14467 0.143774 0.143786 0.150004 0.142478 0.148959 0.201669
threshold=0.79200000000000015 0.31985000000000002 0.18954610150015083 0.040400000000000005 0.11460000000000002 0.064000000000000015 0.74440000000000006 0.51050000000000006 16.271604938271608 0.16935000000000003 0.21095000000000005 0.63650000000000018 844.00000000000011 0.00077866493562695014 0.7010124472573841
decision_type=2 2 2 2 2 2 2 2 2 2 2 2 2 2 2
left_child=3 -2 -3 -1 5 -5 7 8 12 -10 -11 -12 -4 14 -14
right_child=1 2 6 4 -6 -7 -8 -9 9 10 11 -13 13 -15 -16
leaf_value=0.022465433842118264 0.012852251628759191 -0.026942793103354824 -0.031851781922400652 0.0083964536316963757 0.023245997248552818 -0.0094295383653459266 0.0096472096827542771 -0.029577380282337293 0.0081853132789262862 -0.030459733913379018 0.01274342058092588 -0.029049163337447521 0.0055243683742618836 0.0020584153374727638 -0.014088022851697017
leaf_count=7 7 77 20 9 5 7 11 38 23 15 10 13 27 36 172
internal_value=0 -0.0502094 -0.0700217 0.126226 0.0794307 0.0290076 -0.0579165 -0.0669975 -0.0539028 0.0200168 -0.101303 0.00800768 -0.0821036 -0.0701067 -0.104462
internal_count=477 449 442 28 21 16 365 354 316 61 38 23 255 235 199
shrinkage=0.1


Tree=47
num_leaves=16
num_cat=0
split_feature=4 9 1 6 7 6 8 8 8 2 5 5 5 9 7
split_gain=0.746334 0.302275 0.288794 0.160684 0.224311 0.23963 0.138212 0.157262 0.213172 0.114524 0.111061 0.170189 0.156469 0.166647 0.177134
threshold=0.79200000000000015 0.040400000000000005 1709.0000000000002 0.42545000000000005 0.39090000000000008 0.47280000000000005 0.59395000000000009 0.57660000000000011 0.54080000000000006 9621.5000000000018 0.49945000000000006 0.60730000000000006 0.60385000000000011 0.17105000000000001 0.42525000000000007
decision_type=2 2 2 2 2 2 2 2 2 2 2 2 2 2 2
left_child=3 9 -3 -1 5 -5 7 8 10 -2 -4 12 13 -12 -15
right_child=1 2 6 4 -6 -7 -8 -9 -10 -11 11 -13 -14 14 -16
leaf_value=0.021732944714568887 0.015893364878737111 -0.027284228483475129 -0.019812218807201614 0.003697606558351363 0.015595325112067205 -0.036013011223630459 -0.02912232849455907 0.010392442615655112 -0.024109644075318262 -0.0053696842540680682 0.0057466499381580438 -0.0091003164535232162 0.018740288930539476 -0.024485546305687 0.0056006304946367722
leaf_count=6 5 111 16 6 10 6 20 13 51 6 30 146 5 38 8
internal_value=0 -0.0492614 -0.0729551 0.123949 0.0744496 -0.0466872 -0.053754 -0.045276 -0.0611777 0.0965924 -0.0413977 -0.0282666 0.0262118 -0.0102102 -0.123479
internal_count=477 449 438 28 22 12 327 307 294 11 243 227 81 76 46
shrinkage=0.1


Tree=48
num_leaves=16
num_cat=0
split_feature=6 1 4 5 0 1 8 8 9 5 1 4 0 5 5
split_gain=0.689095 0.276498 0.240719 0.180811 0.274075 0.225162 0.156018 0.143113 0.292288 0.13856 0.133634 0.113879 0.107887 0.115816 0.0936221
threshold=0.53575000000000006 1709.0000000000002 0.79200000000000015 0.55990000000000018 0.00018345852111500003 9621.5000000000018 0.42540000000000006 0.44905 0.18320000000000003 0.52950000000000008 4998.5000000000009 0.89615000000000011 0.0022450399419743005 0.43185000000000001 0.58320000000000005
decision_type=2 2 2 2 2 2 2 2 2 2 2 2 2 2 2
left_child=1 -1 12 4 9 -5 -2 10 11 -4 -8 -9 13 -3 -13
right_child=6 2 3 5 -6 -7 7 8 -10 -11 -12 14 -14 -15 -16
leaf_value=-0.029981622733256719 -0.029485116696362387 0.016652961607482298 0.0056249757484991402 -0.029396118650795618 -0.032175752463666364 0.018178208004413051 -0.030052072817698602 -0.024799313340821319 -0.020103463402988297 -0.017995357667127572 0.010492146955059858 -0.029678125180921985 0.020727994254108078 -0.00015801233848114954 0.00012626831120465804
leaf_count=22 27 5 22 7 16 13 11 17 185 19 22 8 10 7 86
internal_value=0 0.0718642 0.0838032 0.0185384 -0.0380041 0.128092 -0.0820264 -0.0685976 -0.0908526 0.0121654 0.0566331 -0.0300112 0.144899 0.0894332 -0.0114131
internal_count=477 121 99 77 57 20 356 329 296 41 33 111 22 12 94
shrinkage=0.1


Tree=49
num_leaves=16
num_cat=0
split_feature=6 6 1 7 8 8 8 8 9 1 4 0 7 5 5
split_gain=0.615961 0.25603 0.22191 0.219211 0.182302 0.219569 0.145324 0.140113 0.266347 0.123825 0.108133 0.103876 0.104834 0.102566 0.100976
threshold=0.53575000000000006 0.40925000000000006 1709.0000000000002 0.37525000000000003 0.52740000000000009 0.57115000000000016 0.42540000000000006 0.44905 0.18320000000000003 4998.5000000000009 0.89615000000000011 0.0035530257456000002 0.21255000000000004 0.5948500000000001 0.55990000000000018
decision_type=2 2 2 2 2 2 2 2 2 2 2 2 2 2 2
left_child=1 -1 -3 11 14 -6 -2 9 10 -8 -9 12 -4 -14 -5
right_child=6 2 3 4 5 -7 7 8 -10 -11 -12 -13 13 -15 -16
leaf_value=0.024489117954729044 -0.029239944641366273 -0.029941956676291428 -0.017777999684098947 0.011702456701044523 -0.025989423157249631 0.013908616807738651 -0.029985653111557788 -0.024546937704653906 -0.019656042174884696 0.010572039353660146 -0.0011806871155424683 -0.024630392609901929 0.004686989173423803 -0.031307101254512089 0.026816386656589631
leaf_count=6 27 22 10 16 16 5 11 17 185 22 94 5 31 5 5
internal_value=0 0.0696119 0.0451332 0.0574337 0.123468 -0.0355854 -0.0786733 -0.0657952 -0.0881678 0.0599653 -0.0300462 -0.00823014 0.00898256 0.0327276 0.168939
internal_count=477 121 115 93 42 21 356 329 296 33 111 51 46 36 21
shrinkage=0.1


Tree=50
num_leaves=16
num_cat=0
split_feature=9 1 4 8 8 9 9 7 8 6 6 8 4 8 5
split_gain=0.576077 0.383788 0.270977 0.184295 0.137737 0.134877 0.16389 0.161156 0.105646 0.252556 0.12582 0.105355 0.100087 0.0988208 0.107127
threshold=0.040400000000000005 1709.0000000000002 0.58535000000000015 0.39835000000000004 0.59395000000000009 0.22660000000000002 0.31230000000000008 0.38715000000000005 0.43340000000000006 0.51875000000000016 0.52555000000000007 0.51970000000000016 0.89615000000000011 0.52610000000000012 0.58320000000000005
decision_type=2 2 2 2 2 2 2 2 2 2 2 2 2 2 2
left_child=3 -2 -3 12 5 8 -7 -8 -4 -10 -11 -12 -1 -13 -15
right_child=1 2 4 -5 -6 6 7 -9 9 10 11 13 -14 14 -16
leaf_value=0.028615911653364298 -0.027702662723760554 0.016579473802476423 0.0047853622709553012 2.6300945976342441e-05 -0.029079172677367954 -0.025035318314940148 -0.03051126839682149 0.0033473061254364112 -0.031588454465107489 0.016745021657429686 -0.010866634015488914 0.018506703225042016 0.011939320020488225 -0.028334333818803206 0.00086879478707108852
leaf_count=5 113 6 40 8 20 82 14 24 23 8 64 9 5 14 42
internal_value=0 -0.035119 -0.0170457 0.151748 -0.0351903 -0.0279382 -0.113941 -0.0314287 -0.00623344 -0.0400882 -0.0142815 -0.0356184 0.211633 0.014049 -0.0193797
internal_count=477 459 346 18 340 320 120 38 200 160 137 129 10 65 56
shrinkage=0.1


Tree=51
num_leaves=16
num_cat=0
split_feature=9 1 4 8 8 6 6 9 1 8 8 4 5 9 7
split_gain=0.512272 0.35957 0.244424 0.167483 0.128862 0.194986 0.139678 0.135365 0.126651 0.107194 0.106707 0.0994169 0.0878398 0.0848542 0.131726
threshold=0.040400000000000005 1709.0000000000002 0.58535000000000015 0.39835000000000004 0.44905 0.51875000000000016 0.52555000000000007 0.17505000000000001 3777.5000000000005 0.59395000000000009 0.49755000000000005 0.89615000000000011 0.56375000000000008 0.16410000000000002 0.34765000000000007
decision_type=2 2 2 2 2 2 2 2 2 2 2 2 2 2 2
left_child=3 -2 -3 11 8 -6 -7 9 -4 10 -8 -1 -9 14 -12
right_child=1 2 4 -5 5 6 7 12 -10 -11 13 -13 -14 -15 -16
leaf_value=0.028465226977949037 -0.027693850545796386 0.016075865603034759 -0.030372111684247489 8.1819883959289362e-05 -0.03167505331114543 0.015078423656258165 -0.016550581543614801 0.0045806296309211045 0.0032506302311714075 -0.028669258713725901 -0.024641665297467849 0.011398976257795068 -0.017909249348434079 0.017186709600166793 0.0032053229318872441
leaf_count=5 113 6 12 8 25 8 19 9 65 15 12 5 131 7 37
internal_value=0 -0.033838 -0.0161947 0.146746 -0.0338671 -0.0684373 -0.0501049 -0.0675359 0.0185866 -0.0204388 -0.00287284 0.206117 -0.145843 0.0276433 -0.00485541
internal_count=477 459 346 18 340 263 238 230 77 90 75 10 140 56 49
shrinkage=0.1


Tree=52
num_leaves=16
num_cat=0
split_feature=9 1 4 8 8 6 3 6 9 8 5 4 0 7 7
split_gain=0.450177 0.344104 0.210461 0.153363 0.127882 0.182683 0.123631 0.120841 0.133505 0.113832 0.10795 0.0994069 0.0941677 0.0902349 0.113413
threshold=0.040400000000000005 1709.0000000000002 0.58535000000000015 0.39835000000000004 0.44905 0.51875000000000016 0.63803308990587482 0.52555000000000007 0.18320000000000003 0.59395000000000009 0.56375000000000008 0.89615000000000011 0.011492226414843551 0.38715000000000005 0.34765000000000007
decision_type=2 2 2 2 2 2 2 2 2 2 2 2 2 2 2
left_child=3 -2 -3 11 6 -6 -4 -7 9 -9 -10 -1 13 14 -8
right_child=1 2 4 -5 5 7 12 8 10 -11 -12 -13 -14 -15 -16
leaf_value=0.028309472014067218 -0.027809364515941043 0.015149953902301033 -0.025362966440815926 2.6428700708438049e-05 -0.031626886015647386 0.014257670750500152 0.0033149083520904853 -0.00050007840395528019 0.006787773541498939 -0.028658518803188329 -0.01974861691108086 0.010781140977084451 -0.014441734943157992 0.01343423914694665 -0.030091054036311765
leaf_count=5 113 6 9 8 25 8 27 83 8 17 122 5 8 22 11
internal_value=0 -0.0321596 -0.014848 0.141037 -0.0316037 -0.0670575 0.0209783 -0.0491662 -0.0656523 -0.0231276 -0.154839 0.200151 0.037275 0.0571491 0.00742126
internal_count=477 459 346 18 340 263 77 238 230 100 130 10 68 60 38
shrinkage=0.1


Tree=53
num_leaves=16
num_cat=0
split_feature=9 1 9 8 8 7 7 5 5 8 7 6 7 0 0
split_gain=0.405401 0.344514 0.199787 0.134845 0.134162 0.115202 0.111988 0.135274 0.151189 0.142237 0.111926 0.149667 0.109285 0.166406 0.103896
threshold=0.040400000000000005 1709.0000000000002 0.22660000000000002 0.59395000000000009 0.39835000000000004 0.42165000000000002 0.38715000000000005 0.63650000000000018 0.60240000000000016 0.46095000000000003 0.49800000000000005 0.64260000000000017 0.47665000000000007 0.00010409499080385001 0.0069978615095923008
decision_type=2 2 2 2 2 2 2 2 2 2 2 2 2 2 2
left_child=4 -2 3 5 -1 14 -4 8 9 -8 11 12 13 -7 -3
right_child=1 2 6 -5 -6 10 7 -9 -10 -11 -12 -13 -14 -15 -16
leaf_value=0.019443351712774476 -0.028201606581542572 -0.00046063494012665097 -0.028481833138570029 -0.028414763078262968 0.00040495109512273767 -0.011012653089284027 -0.036944395598274962 -0.026449360611127234 0.013759762442717614 0.0033889119297759274 -0.0070123578713255988 -0.031884938516344496 0.026448822983652004 0.014851080700657686 -0.026446568669158857
leaf_count=10 113 136 46 18 8 20 6 46 14 10 18 7 7 12 6
internal_value=0 -0.0304597 -0.0132029 0.0109652 0.137246 0.0184535 -0.124512 -0.0717829 -0.00137207 -0.150371 0.074777 0.109028 0.128204 0.0822721 -0.0159174
internal_count=477 459 346 224 18 206 122 76 30 16 64 46 39 32 142
shrinkage=0.1


Tree=54
num_leaves=16
num_cat=0
split_feature=4 8 9 6 7 0 9 8 1 0 5 6 7 7 7
split_gain=0.372488 0.221138 0.129837 0.123129 0.190194 0.137683 0.101477 0.122222 0.0827634 0.0845035 0.105134 0.0802318 0.164919 0.252644 0.0984972
threshold=0.79200000000000015 0.31985000000000002 0.22660000000000002 0.42545000000000005 0.32885000000000003 0.0022450399419743005 0.31230000000000008 0.43985000000000002 9621.5000000000018 0.0095588236821016522 0.60240000000000016 0.74440000000000006 0.49800000000000005 0.48510000000000003 0.43550000000000005
decision_type=2 2 2 2 2 2 2 2 2 2 2 2 2 2 2
left_child=3 -2 11 -1 -5 -6 -4 -8 -9 10 -10 12 13 14 -3
right_child=1 2 6 4 5 -7 7 8 9 -11 -12 -13 -14 -15 -16
leaf_value=0.020462874834812978 0.013095211940513846 -0.0034039081890919944 -0.024449299892150979 -0.010244261660202859 -0.0017582771463845537 0.020630067889759421 -0.033772677854380512 -0.028137850304567336 -0.034895821533669776 0.013840288615893537 0.0036228951361475443 0.012038238824200782 -0.030177057768421764 0.023310218466885226 -0.019684089452981803
leaf_count=6 7 174 121 9 7 6 11 23 6 8 11 12 31 6 39
internal_value=0 -0.0385343 -0.0577011 0.103465 0.0554581 0.125513 -0.140285 -0.0732112 -0.0209 0.0221858 -0.0927225 -0.0319939 -0.0432835 -0.0285901 -0.0520875
internal_count=477 449 442 28 22 13 180 59 48 25 17 262 250 219 213
shrinkage=0.1


Tree=55
num_leaves=16
num_cat=0
split_feature=4 8 3 9 9 6 9 9 8 6 7 7 3 8 1
split_gain=0.372603 0.194923 0.111519 0.101914 0.133179 0.10402 0.0893915 0.101114 0.110119 0.0845334 0.149516 0.15152 0.0998217 0.116171 0.119688
threshold=0.79200000000000015 0.31985000000000002 0.18954610150015083 0.040400000000000005 0.11460000000000002 0.47280000000000005 0.22660000000000002 0.31230000000000008 0.43985000000000002 0.74440000000000006 0.49800000000000005 0.48510000000000003 0.7010124472573841 0.44145000000000006 2655.0000000000005
decision_type=2 2 2 2 2 2 2 2 2 2 2 2 2 2 2
left_child=3 -2 -3 -1 5 -5 9 -8 -9 10 11 12 13 -4 -15
right_child=1 2 6 4 -6 -7 7 8 -10 -11 -12 -13 -14 14 -16
leaf_value=0.020748075257187776 0.012251021862550863 -0.026116684914898228 0.025195158551470621 0.0061071254092044782 0.022513414261963717 -0.015959188373974666 -0.024459386455553535 -0.0330546637193537 -0.00043583327479603808 0.013604513695199182 -0.030105340642406754 0.019402422568118846 -0.0063772341045246405 0.013381797321790775 -0.030924923618285461
leaf_count=7 7 77 5 10 5 6 90 9 37 8 27 6 165 7 11
internal_value=0 -0.0393003 -0.0577747 0.1061 0.0644791 0.0160667 -0.048406 -0.123881 -0.0555308 -0.0272361 -0.0390854 -0.0250745 -0.0429593 0.0912 -0.0593195
internal_count=477 449 442 28 21 16 365 136 46 229 221 194 188 23 18
shrinkage=0.1


Tree=56
num_leaves=16
num_cat=0
split_feature=4 9 8 6 7 0 5 5 7 7 3 6 7 7 3
split_gain=0.357321 0.170833 0.132955 0.0949962 0.134065 0.12332 0.0880371 0.120788 0.110651 0.0860959 0.0714865 0.0702624 0.139166 0.11374 0.0999927
threshold=0.79200000000000015 0.22660000000000002 0.34070000000000006 0.42545000000000005 0.32885000000000003 0.0022450399419743005 0.63650000000000018 0.60240000000000016 0.44875000000000004 0.38715000000000005 0.18954610150015083 0.74440000000000006 0.49800000000000005 0.48510000000000003 0.7010124472573841
decision_type=2 2 2 2 2 2 2 2 2 2 2 2 2 2 2
left_child=3 2 -2 -1 -5 -6 7 8 -3 -9 -4 12 13 14 -12
right_child=1 6 10 4 5 -7 -8 9 -10 -11 11 -13 -14 -15 -16
leaf_value=0.020010006349803322 0.012355694510952168 -0.032816116809526223 -0.027620651345894198 -0.0077234219128091202 -0.0015656342155384946 0.020426166274619597 -0.026659047226715717 -0.023686163586384423 -0.0016078922612480209 0.0091890201465704199 0.0096166906628699419 0.012725591158272273 -0.029844122092306531 0.017478519357101222 -0.005904057120280198
leaf_count=6 5 29 33 9 7 6 98 17 12 26 23 8 27 6 165
internal_value=0 -0.0388371 -0.011935 0.106406 0.0625531 0.12345 -0.139084 -0.0875677 -0.201511 0.0234829 -0.0315829 -0.0248831 -0.0357612 -0.02239 -0.03769
internal_count=477 449 267 28 22 13 182 84 41 43 262 229 221 194 188
shrinkage=0.1


Tree=57
num_leaves=16
num_cat=0
split_feature=4 8 3 6 7 0 9 9 7 6 7 7 7 3 1
split_gain=0.343009 0.146374 0.0987943 0.0819515 0.112365 0.110142 0.0697805 0.0929009 0.0893935 0.0640329 0.124832 0.0922151 0.0923432 0.0819657 0.101451
threshold=0.79200000000000015 0.31985000000000002 0.18954610150015083 0.42545000000000005 0.32885000000000003 0.0022450399419743005 0.22660000000000002 0.31230000000000008 0.38715000000000005 0.74440000000000006 0.49800000000000005 0.48510000000000003 0.43550000000000005 0.78604449853943537 9621.5000000000018
decision_type=2 2 2 2 2 2 2 2 2 2 2 2 2 2 2
left_child=3 -2 -3 -1 -5 -6 9 -8 -9 10 11 12 13 -4 -15
right_child=1 2 6 4 5 -7 7 8 -10 -11 -12 -13 -14 14 -16
leaf_value=0.01958271654765285 0.010550595013949357 -0.02609097047715497 0.010932182732798931 -0.0064125774142221488 -0.0010649331778880766 0.02005636429166251 -0.024111308900298833 -0.029041476141532942 0.00016869614582017676 0.011960217144600899 -0.029667674558955689 0.015845323828766876 -0.018875954949316903 -0.02541577122541715 -0.0023618944418217131
leaf_count=6 7 77 17 9 7 6 90 15 31 8 27 6 36 19 116
internal_value=0 -0.0390411 -0.0557812 0.106198 0.0650828 0.122127 -0.0468974 -0.117082 -0.0497941 -0.0277637 -0.0384054 -0.0257132 -0.0395079 -0.0211858 -0.0420678
internal_count=477 449 442 28 22 13 365 136 46 229 221 194 188 152 135
shrinkage=0.1


Tree=58
num_leaves=16
num_cat=0
split_feature=4 9 1 5 2 8 7 9 5 9 0 6 3 6 9
split_gain=0.302407 0.129248 0.154483 0.126912 0.10243 0.0913515 0.192035 0.137557 0.0878501 0.0744301 0.104921 0.14219 0.114961 0.0917273 0.0754427
threshold=0.79200000000000015 0.040400000000000005 1709.0000000000002 0.52490000000000003 9621.5000000000018 0.40305000000000007 0.39090000000000008 0.044800000000000006 0.52950000000000008 0.18625000000000003 0.00010409499080385001 0.65675000000000006 1.0240360540811217 0.63360000000000005 0.31230000000000008
decision_type=2 2 2 2 2 2 2 2 2 2 2 2 2 2 2
left_child=5 4 -3 -4 -2 7 -7 -1 -5 10 11 13 -12 -10 -11
right_child=1 2 3 8 -6 6 -8 -9 9 14 12 -13 -14 -15 -16
leaf_value=0.028322431521263732 0.014899431247417438 -0.026561361010484997 -0.02142999747684186 0.012291735860818711 -0.0094089198361297314 -0.02351084637594349 0.011516682580320596 0.0076216750541603295 -0.0054444441421538023 -0.018087464534877539 0.016680396788659485 -0.031813835046882059 -0.0090217705317374493 0.014613343239389119 -0.002693400839329185
leaf_count=5 5 111 27 5 6 7 6 10 81 124 13 19 15 7 36
internal_value=0 -0.0372062 -0.0563052 -0.0416737 0.0778498 0.100982 0.0120544 0.148385 -0.0260806 -0.0397156 -0.00987784 -0.0507442 0.0856392 -0.0224967 -0.102681
internal_count=477 449 438 327 11 28 13 15 300 295 135 107 28 88 160
shrinkage=0.1


Tree=59
num_leaves=16
num_cat=0
split_feature=4 8 3 6 7 0 6 7 4 8 8 9 9 7 5
split_gain=0.279073 0.131901 0.086339 0.0795573 0.103432 0.0953995 0.0667415 0.118662 0.0746506 0.0743315 0.14236 0.0751453 0.0800919 0.0920125 0.0639163
threshold=0.79200000000000015 0.31985000000000002 0.18954610150015083 0.42545000000000005 0.32885000000000003 0.0022450399419743005 0.74440000000000006 0.51050000000000006 0.91860000000000008 0.58370000000000011 0.54080000000000006 0.19865000000000002 0.31230000000000008 0.38715000000000005 0.63650000000000018
decision_type=2 2 2 2 2 2 2 2 2 2 2 2 2 2 2
left_child=3 -2 -3 -1 -5 -6 7 8 -4 10 11 -10 -13 -14 -15
right_child=1 2 6 4 5 -7 -8 -9 9 -11 -12 12 13 14 -16
leaf_value=0.019294371499645531 0.010520673852419369 -0.025875197081811997 -0.017704328503807983 -0.0067744090870278731 -0.0011034073567606777 0.019242593459585872 0.010724207004339443 -0.028905687491105964 0.00069575236585441372 0.012087265903975441 -0.023326749964330071 -0.023965526443427879 -0.028960221649685137 0.0063303287177961728 -0.027950284947713205
leaf_count=6 7 77 50 9 7 6 11 38 105 9 47 66 15 14 10
internal_value=0 -0.0364724 -0.0530223 0.0995492 0.0582172 0.115692 -0.0446904 -0.0537649 -0.0427247 -0.0299873 -0.0423504 -0.0221071 -0.0997397 -0.0366414 0.0215352
internal_count=477 449 442 28 22 13 365 354 316 266 257 210 105 39 24
shrinkage=0.1


Tree=60
num_leaves=16
num_cat=0
split_feature=4 9 1 5 6 8 7 9 8 8 8 6 8 8 8
split_gain=0.246624 0.123384 0.135217 0.106457 0.0846059 0.0793044 0.168197 0.132641 0.0775141 0.0770494 0.114838 0.0696877 0.0677277 0.102551 0.0785643
threshold=0.79200000000000015 0.040400000000000005 1709.0000000000002 0.52490000000000003 0.46840000000000004 0.40305000000000007 0.39090000000000008 0.044800000000000006 0.59395000000000009 0.57660000000000011 0.54080000000000006 0.56405000000000005 0.44255000000000005 0.42540000000000006 0.51810000000000012
decision_type=2 2 2 2 2 2 2 2 2 2 2 2 2 2 2
left_child=5 4 -3 -4 -2 7 -7 -1 9 10 11 -5 13 -13 -14
right_child=1 2 3 8 -6 6 -8 -9 -10 -11 -12 12 14 -15 -16
leaf_value=0.028291047309182932 -0.0038639224784582493 -0.026354596204613834 -0.020488089063345039 0.0032541478091824313 0.017155657369787396 -0.022536132605986949 0.011031597601971851 0.0069046679295904443 -0.028076004460476811 0.010557360219357131 -0.021744390165336691 -0.026213329998016 -0.015642980616532711 0.012684596678427189 0.0015617281469751131
leaf_count=5 6 111 27 73 5 7 6 10 19 13 46 14 90 16 29
internal_value=0 -0.0349055 -0.0543736 -0.0405279 0.0813707 0.0947222 0.00994197 0.141293 -0.0257361 -0.0181704 -0.0341289 -0.0160023 -0.0616481 0.0478608 -0.0998041
internal_count=477 449 438 327 11 28 13 15 300 281 268 222 149 30 119
shrinkage=0.1


Tree=61
num_leaves=16
num_cat=0
split_feature=8 5 6 3 5 6 9 1 2 7 4 9 8 6 4
split_gain=0.222998 0.277513 0.152175 0.137249 0.107791 0.119748 0.100414 0.0821119 0.0753165 0.08791 0.0718685 0.0693181 0.0712483 0.0678039 0.0645551
threshold=0.39835000000000004 0.84315000000000018 0.52670000000000006 2.9835285156621922 0.55485000000000018 0.45955000000000007 0.040400000000000005 4998.5000000000009 8572.5000000000018 0.31655000000000005 0.89615000000000011 0.17255000000000001 0.44255000000000005 0.65675000000000006 0.9114000000000001
decision_type=2 2 2 2 2 2 2 2 2 2 2 2 2 2 2
left_child=2 3 6 4 5 -2 10 -6 9 -9 -1 -5 -13 14 -10
right_child=1 -3 -4 11 7 -7 -8 8 13 -11 -12 12 -14 -15 -16
leaf_value=0.028187314819629012 0.0025229527624816184 0.029483716704461378 -0.029197738907859136 0.0041095089532108865 -0.017889555098008811 -0.029388923503440412 0.0044948970761700497 0.0032394409845492526 -0.020663469432912876 -0.029297973786862042 0.0098930124730115254 0.016257447557690732 -0.015006189180294442 -0.029952841129024674 0.0040083293623142191
leaf_count=5 7 7 14 58 111 44 16 16 18 35 5 7 56 11 67
internal_value=0 -0.0359091 0.0842805 -0.0521481 -0.0976394 -0.2136 0.102652 -0.0647498 -0.032078 -0.163685 0.185559 0.00911046 -0.0941491 0.00135345 0.017862
internal_count=477 437 40 430 309 51 26 258 147 51 10 121 63 96 85
shrinkage=0.1


Tree=62
num_leaves=16
num_cat=0
split_feature=4 8 6 7 0 3 6 7 4 8 8 8 1 1 5
split_gain=0.214073 0.105736 0.0774617 0.0951092 0.0832617 0.0734677 0.0750853 0.101915 0.067687 0.0648362 0.120854 0.0587609 0.0794102 0.133765 0.076623
threshold=0.79200000000000015 0.31985000000000002 0.42545000000000005 0.32885000000000003 0.0015073298712539004 0.18954610150015083 0.74440000000000006 0.51050000000000006 0.91860000000000008 0.58370000000000011 0.54080000000000006 0.51810000000000012 3777.5000000000005 6753.0000000000009 0.66515000000000002
decision_type=2 2 2 2 2 2 2 2 2 2 2 2 2 2 2
left_child=2 -2 -1 -4 -5 -3 7 8 -7 10 11 12 -10 -14 -13
right_child=1 5 3 4 -6 6 -8 -9 9 -11 -12 14 13 -15 -16
leaf_value=0.019186643515646806 0.010039361832265824 -0.025612293336014575 -0.0077303548615772037 -0.0043470616697028341 0.016928803456378167 -0.01748140339505885 0.012130156080082345 -0.028687930107578294 -0.024200188777700762 0.011803024148749341 -0.022698855243354295 0.0097806408985946277 0.022574665435053654 -0.0052499081988109644 -0.02235746545662742
leaf_count=6 7 77 9 6 7 50 11 38 31 9 47 24 5 139 11
internal_value=0 -0.0332803 0.0923092 0.0501734 0.107678 -0.0487241 -0.0410088 -0.0514593 -0.0410501 -0.0283449 -0.0405228 -0.0212213 -0.0452559 -0.028024 0.0591235
internal_count=477 449 28 22 13 442 365 354 316 266 257 210 175 144 35
shrinkage=0.1


Tree=63
num_leaves=16
num_cat=0
split_feature=4 9 1 5 6 6 8 0 7 7 6 7 6 7 7
split_gain=0.204547 0.101822 0.112818 0.0887973 0.081166 0.0691192 0.0726123 0.0764125 0.110147 0.0811355 0.066769 0.0795654 0.0662115 0.06541 0.0604825
threshold=0.79200000000000015 0.040400000000000005 1709.0000000000002 0.52490000000000003 0.46840000000000004 0.52555000000000007 0.42540000000000006 0.0095588236821016522 0.49800000000000005 0.47665000000000007 0.42545000000000005 0.31655000000000005 0.64260000000000017 0.42740000000000006 0.32885000000000003
decision_type=2 2 2 2 2 2 2 2 2 2 2 2 2 2 2
left_child=10 4 -3 -4 -2 -5 -7 8 9 13 -1 -12 -11 14 -8
right_child=1 2 3 5 -6 6 7 -9 -10 12 11 -13 -14 -15 -16
leaf_value=0.018670390302446133 -0.0044330315305877331 -0.026091170442605879 -0.01970634137453911 0.006905733716451052 0.017223754026076812 -0.026766581290966047 -0.014169675576425811 0.0092335066927853055 -0.02863353052991512 0.016934137812244121 -0.010304212935952392 0.0092830397544831408 -0.030094153531058151 -0.021005870804270094 -0.00036732451593172116
leaf_count=6 6 111 27 23 5 21 54 20 35 10 6 16 6 36 95
internal_value=0 -0.0331976 -0.0517286 -0.0389822 0.0781315 -0.0248976 -0.0449872 -0.0341784 -0.0551707 -0.0358618 0.0916435 0.0523572 0.116837 -0.0591921 -0.0372466
internal_count=477 449 438 327 11 300 277 256 236 201 28 22 16 185 149
shrinkage=0.1


Tree=64
num_leaves=16
num_cat=0
split_feature=4 9 1 9 2 8 8 8 0 6 5 8 5 8 2
split_gain=0.197903 0.0926365 0.105731 0.0788553 0.0770531 0.0693274 0.0790322 0.0972117 0.0663248 0.127183 0.0686482 0.0558978 0.0806906 0.0675947 0.108142
threshold=0.79200000000000015 0.040400000000000005 1709.0000000000002 0.060000000000000005 9621.5000000000018 0.59395000000000009 0.57660000000000011 0.54080000000000006 0.0022450399419743005 0.45305000000000006 0.52110000000000001 0.51810000000000012 0.66515000000000002 0.45290000000000002 9621.5000000000018
decision_type=2 2 2 2 2 2 2 2 2 2 2 2 2 2 2
left_child=8 4 -3 -4 -2 6 7 11 9 -1 -10 13 -13 14 -5
right_child=1 2 3 5 -6 -7 -8 -9 10 -11 -12 12 -14 -15 -16
leaf_value=0.009335463443928908 0.014517686029921357 -0.026030836376099254 -0.022069779168929469 0.0041888917248000257 -0.0086731971315671137 -0.027938496991846085 0.011201211583629 -0.02135612678040525 0.025111961080145701 -0.019448370463216121 0.0057644817374652053 0.0096551046189637703 -0.021943556654872021 -0.010365926558215088 -0.029373861813143096
leaf_count=10 5 111 12 47 6 20 12 50 5 7 6 37 14 116 19
internal_value=0 -0.0332216 -0.0511681 -0.0388137 0.0749743 -0.027593 -0.0200273 -0.0369684 0.0916434 0.0381006 0.163268 -0.0193887 0.0562902 -0.0453245 0.00930752
internal_count=477 449 438 327 11 315 295 283 28 17 11 233 51 182 66
shrinkage=0.1


Tree=65
num_leaves=16
num_cat=0
split_feature=9 1 4 9 8 8 1 0 2 8 6 5 0 5 8
split_gain=0.183409 0.178857 0.124632 0.0945575 0.0736863 0.0977488 0.0804231 0.0635963 0.0939753 0.0789126 0.0732418 0.0714725 0.0566989 0.0547165 0.0538609
threshold=0.040400000000000005 4998.5000000000009 0.58535000000000015 0.029250000000000002 0.44905 0.49755000000000005 9621.5000000000018 0.0013532348804500501 844.00000000000011 0.58370000000000011 0.65865000000000007 0.60580000000000012 0.00020818998160770003 0.63285000000000002 0.59395000000000009
decision_type=2 2 2 2 2 2 2 2 2 2 2 2 2 2 2
left_child=3 -2 -3 12 -4 -6 -7 8 10 13 11 -8 -1 -10 -11
right_child=1 2 4 -5 5 6 7 -9 9 14 -12 -13 -14 -15 -16
leaf_value=0.010849162067667832 -0.019138070215900312 0.015947346336824968 0.0029103122192875625 0.022852139382679909 -0.016982798492178396 -0.027562867938260682 -0.0037736391222094284 0.010374930514356041 -0.0083609183328478606 0.012182967887718117 -0.032937569877673163 0.02030044250033633 -0.008756044096575738 -0.027907337454058701 -0.02867119055138866
leaf_count=7 147 5 64 6 73 19 15 17 51 6 5 8 5 41 8
internal_value=0 -0.0247698 -0.00416999 0.117319 -0.0205917 -0.0557716 -0.0210437 -0.00434535 -0.0374846 -0.105568 0.0640988 0.0982376 0.0400349 -0.167059 0.052177
internal_count=477 459 312 18 307 243 170 151 134 106 28 23 12 92 14
shrinkage=0.1


Tree=66
num_leaves=16
num_cat=0
split_feature=4 8 0 6 5 3 8 8 7 4 7 8 5 1 9
split_gain=0.179849 0.0776513 0.0628429 0.0972657 0.057583 0.0564 0.0414626 0.0700149 0.0528052 0.0539782 0.0522839 0.0488152 0.0472266 0.0676421 0.0626933
threshold=0.79200000000000015 0.31985000000000002 0.0022450399419743005 0.45305000000000006 0.52110000000000001 0.18954610150015083 0.57660000000000011 0.54080000000000006 0.51050000000000006 0.96520000000000017 0.39825000000000005 0.77130000000000021 0.61360000000000015 4998.5000000000009 0.19865000000000002
decision_type=2 2 2 2 2 2 2 2 2 2 2 2 2 2 2
left_child=2 -2 3 -1 -4 -3 7 8 9 -7 -8 -12 -11 -14 -15
right_child=1 5 4 -5 -6 6 10 -9 -10 12 11 -13 13 14 -16
leaf_value=0.008648569666291123 0.0089913174728066189 -0.025187223836391284 0.02486430094841869 -0.017505969129808122 0.0064055200695851168 -0.016142502161136146 -0.031129655022675919 -0.020568257931858919 -0.027948913571297453 0.0016347412742108752 0.009345033548274987 -0.026681330872180775 -0.029848813130452279 -5.6805193350032242e-05 -0.019827613422580027
leaf_count=10 7 77 5 7 6 46 6 55 25 77 22 9 26 46 53
internal_value=0 -0.0324498 0.0906669 0.0372739 0.163719 -0.0465466 -0.0397418 -0.0531645 -0.0394207 -0.0322418 0.0393174 0.0656135 -0.0181969 -0.0691463 -0.0419431
internal_count=477 449 28 17 11 442 365 328 273 248 37 31 202 125 99
shrinkage=0.1


Tree=67
num_leaves=16
num_cat=0
split_feature=4 8 6 7 0 3 6 7 4 8 8 5 5 9 7
split_gain=0.165527 0.0698995 0.0578925 0.0673243 0.0725299 0.0527788 0.0365128 0.0855334 0.0540174 0.0550101 0.0781005 0.0437893 0.0771353 0.0875108 0.0815058
threshold=0.79200000000000015 0.31985000000000002 0.42545000000000005 0.32885000000000003 0.0022450399419743005 0.18954610150015083 0.74440000000000006 0.51050000000000006 0.91860000000000008 0.58370000000000011 0.54080000000000006 0.60730000000000006 0.60240000000000016 0.17105000000000001 0.45705000000000007
decision_type=2 2 2 2 2 2 2 2 2 2 2 2 2 2 2
left_child=2 -2 -1 -4 -5 -3 7 8 -7 10 11 12 13 -10 -15
right_child=1 5 3 4 -6 6 -8 -9 9 -11 -12 -13 -14 14 -16
leaf_value=0.018423573868337709 0.0085772167127159786 -0.025066040082632003 -0.0066936875565351871 -0.0020350065191950917 0.017835465011344601 -0.016499795766032138 0.0090095176700411249 -0.028836583077066241 0.0029385742106406328 0.011751103983737956 -0.02026233889391546 -0.0065770604112412702 0.016350442857738307 -0.029912768932908458 0.0050759257977333926
leaf_count=6 7 77 9 7 6 50 11 38 35 9 47 138 6 26 5
internal_value=0 -0.0316125 0.088237 0.0497091 0.101382 -0.0452423 -0.0386785 -0.0461535 -0.0363035 -0.0241196 -0.0364615 -0.0202245 0.0162333 -0.0195263 -0.171339
internal_count=477 449 28 22 13 442 365 354 316 266 257 210 72 66 31
shrinkage=0.1


Tree=68
num_leaves=16
num_cat=0
split_feature=4 9 1 5 6 8 0 6 5 8 5 5 9 7 7
split_gain=0.161198 0.0687009 0.0846726 0.0847338 0.0612245 0.0581413 0.0538534 0.0828138 0.053481 0.0470392 0.0509527 0.0854696 0.0663382 0.0614577 0.0993459
threshold=0.79200000000000015 0.040400000000000005 1709.0000000000002 0.49945000000000006 0.46840000000000004 0.59395000000000009 0.0022450399419743005 0.45305000000000006 0.52110000000000001 0.58615000000000006 0.83255000000000012 0.63945000000000018 0.090150000000000022 0.47665000000000007 0.48725000000000007
decision_type=2 2 2 2 2 2 2 2 2 2 2 2 2 2 2
left_child=6 4 -3 -4 -2 9 7 -1 -8 10 11 12 -5 -13 -15
right_child=1 2 3 5 -6 -7 8 -9 -10 -11 -12 13 -14 14 -16
leaf_value=0.008437688630146746 -0.0044735422827771416 -0.025768460636437576 -0.0218398004888921 0.010568810957326109 0.015818173296540873 -0.027640528824851896 0.024568972177187738 -0.016462002515728543 0.0061371815579499356 0.012233404814184459 0.016142768891408286 -0.016552874393644088 -0.003211777656962156 0.017001193661485677 -0.027333712111040732
leaf_count=10 6 111 19 13 5 20 5 7 6 6 6 96 136 8 23
internal_value=0 -0.0315943 -0.0479333 -0.0368583 0.0674236 -0.0233768 0.0885567 0.0381202 0.159035 -0.016247 -0.027076 -0.0363732 0.00195852 -0.116849 0.0243824
internal_count=477 449 438 327 11 308 28 17 11 288 282 276 149 127 31
shrinkage=0.1


Tree=69
num_leaves=16
num_cat=0
split_feature=9 1 4 9 8 8 5 6 8 2 8 3 8 8 9
split_gain=0.148208 0.133419 0.089748 0.084999 0.0521978 0.0729408 0.0427479 0.0740077 0.0596567 0.0603627 0.0502301 0.0835957 0.0700984 0.060776 0.0831498
threshold=0.040400000000000005 1709.0000000000002 0.58535000000000015 0.023000000000000003 0.59395000000000009 0.58615000000000006 0.83255000000000012 0.65675000000000006 0.54080000000000006 9621.5000000000018 0.51810000000000012 0.63803308990587482 0.44905 0.49755000000000005 0.17650000000000002
decision_type=2 2 2 2 2 2 2 2 2 2 2 2 2 2 2
left_child=3 -2 -3 -1 5 6 7 8 10 -10 11 -4 -13 -14 -15
right_child=1 2 4 -5 -6 -7 -8 -9 9 -11 -12 12 13 14 -16
leaf_value=0.00063504514145563311 -0.02688500268534233 0.013366682746272588 -0.025128080306720209 0.019547619969792346 -0.027399619727759901 0.014694700533071854 0.014715817678948731 -0.030524512849068177 -0.028584757092573507 0.00043361753390935018 0.006215878070715955 0.0020283953192015633 -0.016370179317136118 0.0096269827945823037 -0.021925695382746524
leaf_count=9 113 6 17 9 20 6 6 21 32 18 50 62 73 11 24
internal_value=0 -0.0234367 -0.011731 0.112724 -0.0256555 -0.0204599 -0.0314556 -0.0378921 -0.0301792 -0.166056 -0.0175931 -0.0373207 -0.0220557 -0.0913559 0.001362
internal_count=477 459 346 18 340 320 314 308 287 50 237 187 170 108 35
shrinkage=0.1


Tree=70
num_leaves=16
num_cat=0
split_feature=4 6 8 6 0 6 3 8 9 8 8 7 8 1 3
split_gain=0.1456 0.080555 0.134471 0.0523422 0.0582908 0.049503 0.0458663 0.0457915 0.0585024 0.0558119 0.0489516 0.0439523 0.0429811 0.0567606 0.115572
threshold=0.79200000000000015 0.42975000000000002 0.31985000000000002 0.42545000000000005 0.0022450399419743005 0.45305000000000006 0.13517001230014117 0.57660000000000011 0.10790000000000001 0.5878000000000001 0.54080000000000006 0.42165000000000002 0.51810000000000012 3777.5000000000005 0.7010124472573841
decision_type=2 2 2 2 2 2 2 2 2 2 2 2 2 2 2
left_child=3 -2 -3 -1 5 -5 -4 10 -9 11 12 -10 13 -8 -15
right_child=1 2 6 4 -6 -7 7 8 9 -11 -12 -13 -14 14 -16
leaf_value=0.018296368728860916 -0.021882578204621025 0.018033724069715856 -0.027078449616968588 0.0038886768466603293 0.012976747185732619 -0.016989120708133035 -0.02358470713095917 0.015905937982176158 -0.030872732465007796 -0.027390500185604578 -0.018382973930472987 0.010955947758695768 0.0035250798100709604 0.024100585204051353 -0.0064880722033987511
leaf_count=6 7 5 64 6 9 7 47 7 5 21 60 5 59 5 164
internal_value=0 -0.0309545 -0.0202553 0.086415 0.0486501 -0.0209872 -0.0379354 -0.0322825 0.0531897 -0.0512127 -0.0480307 0.0428334 -0.0354824 -0.0585899 -0.0424348
internal_count=477 449 442 28 22 13 437 373 38 31 335 10 275 216 169
shrinkage=0.1


Tree=71
num_leaves=16
num_cat=0
split_feature=6 9 0 0 5 6 8 5 9 5 7 6 5 5 1
split_gain=0.132491 0.0743451 0.0768743 0.0719036 0.102378 0.074599 0.0624676 0.0919648 0.0686208 0.0604958 0.0816115 0.0586258 0.0585054 0.0584628 0.0804686
threshold=0.40925000000000006 0.22660000000000002 0.0013532348804500501 0.00035000000000000005 0.59240000000000015 0.47490000000000004 0.51230000000000009 0.67575000000000007 0.15885000000000002 0.63650000000000018 0.38715000000000005 0.44200000000000006 0.60240000000000016 0.69175000000000009 4998.5000000000009
decision_type=2 2 2 2 2 2 2 2 2 2 2 2 2 2 2
left_child=-1 2 3 5 -5 11 7 -7 -9 10 -3 -2 -12 -8 -15
right_child=1 9 -4 4 -6 6 13 8 -10 -11 12 -13 -14 14 -16
leaf_value=0.02264256661412304 -0.0024044623637144436 -0.026198505802958585 0.0085815821066214781 -0.037652210745779742 0.0059738172240057976 -0.021954954278728941 0.0036738802995252224 -0.02022949274145679 0.012675359950971236 -0.025661764437227754 -0.011736643055537888 0.011291038551437406 0.011672670348465669 0.0093072390928477401 -0.027314943423870072
leaf_count=6 13 37 33 8 9 69 81 15 12 98 21 12 26 8 29
internal_value=0 -0.0110916 0.00518963 -0.0171685 -0.191759 -0.00483306 -0.0455107 -0.121482 0.0160347 -0.101887 -0.0507592 0.053977 0.0164623 -0.000904079 -0.134628
internal_count=477 471 289 256 17 239 214 96 27 182 84 25 47 118 37
shrinkage=0.1


Tree=72
num_leaves=16
num_cat=0
split_feature=6 5 1 6 9 0 0 7 5 9 8 7 9 6 7
split_gain=0.122508 0.0681529 0.0776943 0.0716832 0.0564746 0.0549643 0.117168 0.054041 0.0523227 0.0469833 0.0463854 0.0454076 0.0444711 0.0404182 0.0388651
threshold=0.40925000000000006 0.61620000000000019 1709.0000000000002 0.57665000000000011 0.19865000000000002 0.0013532348804500501 0.00035000000000000005 0.49800000000000005 0.63650000000000018 0.056000000000000008 0.51810000000000012 0.34255000000000008 0.39820000000000005 0.53690000000000004 0.38715000000000005
decision_type=2 2 2 2 2 2 2 2 2 2 2 2 2 2 2
left_child=-1 2 -2 -3 11 6 7 9 10 -4 -6 -5 14 -8 -7
right_child=1 3 5 4 8 12 13 -9 -10 -11 -12 -13 -14 -15 -16
leaf_value=0.022320987851959254 -0.026932365620900303 -0.030228636622304756 0.0096140697739680748 -0.017337138596339879 -0.027989269008433782 -0.002019537837649969 -0.035931299697120514 -0.032058596581508891 -0.025562073897794892 -0.00077319206720627702 0.028058831531774398 0.0011582634156302167 -0.013692735978136592 -0.0037208149032821659 0.013692129233074182
leaf_count=6 41 28 13 17 11 10 7 7 109 112 6 82 5 5 18
internal_value=0 -0.0106812 0.013718 -0.0676425 -0.0468686 0.0217134 -0.00509766 0.0152386 -0.17732 0.0227307 0.0735012 -0.0148241 0.0831135 -0.25301 0.103029
internal_count=477 471 218 253 225 177 144 132 126 125 17 99 33 12 28
shrinkage=0.1


Tree=73
num_leaves=16
num_cat=0
split_feature=9 1 8 4 4 8 8 5 9 9 6 5 8 8 8
split_gain=0.122159 0.109722 0.0701059 0.0635175 0.0511309 0.044962 0.0471583 0.0295702 0.0653206 0.0833581 0.0375179 0.0501207 0.0412965 0.03384 0.0643006
threshold=0.040400000000000005 1709.0000000000002 0.39835000000000004 0.58535000000000015 0.89615000000000011 0.59395000000000009 0.58615000000000006 0.63945000000000018 0.11710000000000002 0.19865000000000002 0.59435000000000016 0.62125000000000008 0.53930000000000011 0.49755000000000005 0.45105000000000001
decision_type=2 2 2 2 2 2 2 2 2 2 2 2 2 2 2
left_child=2 -2 4 -3 -1 6 7 10 -9 -10 11 12 13 14 -5
right_child=1 3 -4 5 -6 -7 -8 8 9 -11 -12 -13 -14 -15 -16
leaf_value=0.027953935451037876 -0.026787061826727521 0.011800124174856071 -0.0017101305534981031 0.00072138193933255163 0.008733775996155024 -0.027246656398383057 0.012502513538483069 -0.025748731466424951 0.0016183081113670735 -0.025003636298432625 0.016248577524149176 -0.026409581396587351 -0.017751591382657351 0.0063427240786940722 -0.015961739817702873
leaf_count=5 113 6 8 41 5 20 6 20 49 66 9 16 30 47 36
